#mdl#2#304
#rdr#50/16/0
12:u00:%x[-3,0],
12:u01:%x[-2,0],
12:u02:%x[-1,0],
11:u03:%x[0,0],
11:u04:%x[1,0],
11:u05:%x[2,0],
11:u06:%x[3,0],
20:u07:%x[-1,0]/%x[0,0],
19:u08:%x[0,0]/%x[1,0],
19:u09:%x[1,0]/%x[2,0],
21:u0A:%x[-2,0]/%x[-1,0],
12:u10:%x[-2,1],
12:u11:%x[-1,1],
11:u12:%x[0,1],
11:u13:%x[1,1],
11:u14:%x[2,1],
11:u20:%x[0,2],
11:u21:%x[0,3],
11:u22:%x[0,4],
11:u23:%x[0,5],
11:u30:%x[0,6],
11:u31:%x[0,7],
11:u32:%x[0,8],
11:u33:%x[0,9],
13:u40:%x[-1,10],
12:u41:%x[0,10],
12:u42:%x[1,10],
12:u50:%x[0,11],
12:u51:%x[1,11],
13:u52:%x[-1,11],
21:u53:%x[0,11]/%x[1,11],
22:u54:%x[-1,11]/%x[0,11],
12:u60:%x[0,12],
13:u61:%x[-1,12],
12:u62:%x[1,12],
12:u70:%x[0,13],
13:u71:%x[-1,13],
12:u72:%x[1,13],
12:u80:%x[0,14],
12:u81:%x[0,15],
13:u82:%x[-1,14],
13:u83:%x[-1,15],
12:u84:%x[1,14],
12:u85:%x[1,15],
12:u90:%x[0,16],
13:u91:%x[-1,16],
13:u92:%x[-2,16],
12:u93:%x[1,16],
12:u94:%x[2,16],
1:b,
#qrk#7
9:I-<other>,
7:I-<day>,
9:I-<month>,
8:I-<year>,
7:<other>,
5:<day>,
6:<year>,
#qrk#6597
8:u00:_x-3,
8:u01:_x-2,
8:u02:_x-1,
13:u03:Published,
6:u04:24,
7:u05:May,
8:u06:2011,
18:u07:_x-1/Published,
16:u08:Published/24,
10:u09:24/May,
13:u0A:_x-2/_x-1,
8:u10:_x-2,
8:u11:_x-1,
13:u12:published,
6:u13:24,
7:u14:may,
5:u20:P,
6:u21:Pu,
7:u22:Pub,
8:u23:Publ,
5:u30:d,
6:u31:ed,
7:u32:hed,
8:u33:shed,
8:u40:_x-1,
13:u41:LINESTART,
10:u42:LINEIN,
11:u50:INITCAP,
10:u51:NOCAPS,
8:u52:_x-1,
18:u53:INITCAP/NOCAPS,
16:u54:_x-1/INITCAP,
11:u60:NODIGIT,
8:u61:_x-1,
12:u62:ALLDIGIT,
5:u70:0,
8:u71:_x-1,
5:u72:0,
5:u80:0,
5:u81:0,
8:u82:_x-1,
8:u83:_x-1,
5:u84:0,
5:u85:0,
11:u90:NOPUNCT,
8:u91:_x-1,
8:u92:_x-2,
11:u93:NOPUNCT,
11:u94:NOPUNCT,
1:b,
8:u00:_x-2,
8:u01:_x-1,
13:u02:Published,
6:u03:24,
7:u04:May,
8:u05:2011,
8:u06:_x+1,
16:u07:Published/24,
10:u08:24/May,
12:u09:May/2011,
18:u0A:_x-1/Published,
8:u10:_x-1,
13:u11:published,
6:u12:24,
7:u13:may,
8:u14:2011,
5:u20:2,
6:u21:24,
6:u22:24,
6:u23:24,
5:u30:4,
6:u31:24,
6:u32:24,
6:u33:24,
13:u40:LINESTART,
10:u41:LINEIN,
10:u50:NOCAPS,
11:u51:INITCAP,
11:u52:INITCAP,
18:u53:NOCAPS/INITCAP,
18:u54:INITCAP/NOCAPS,
12:u60:ALLDIGIT,
11:u61:NODIGIT,
11:u62:NODIGIT,
5:u71:0,
5:u82:0,
5:u83:0,
5:u85:1,
11:u91:NOPUNCT,
8:u92:_x-1,
8:u00:_x-1,
13:u01:Published,
6:u02:24,
7:u03:May,
8:u04:2011,
8:u05:_x+1,
8:u06:_x+2,
10:u07:24/May,
12:u08:May/2011,
13:u09:2011/_x+1,
16:u0A:Published/24,
13:u10:published,
6:u11:24,
7:u12:may,
8:u13:2011,
8:u14:_x+1,
5:u20:M,
6:u21:Ma,
7:u22:May,
7:u23:May,
5:u30:y,
6:u31:ay,
7:u32:May,
7:u33:May,
10:u40:LINEIN,
11:u42:LINEEND,
10:u52:NOCAPS,
18:u54:NOCAPS/INITCAP,
12:u61:ALLDIGIT,
5:u81:1,
5:u84:1,
11:u92:NOPUNCT,
8:u94:_x+1,
13:u00:Published,
6:u01:24,
7:u02:May,
8:u03:2011,
8:u04:_x+1,
8:u05:_x+2,
8:u06:_x+3,
12:u07:May/2011,
13:u08:2011/_x+1,
13:u09:_x+1/_x+2,
10:u0A:24/May,
6:u10:24,
7:u11:may,
8:u12:2011,
8:u13:_x+1,
8:u14:_x+2,
6:u21:20,
7:u22:201,
8:u23:2011,
5:u30:1,
6:u31:11,
7:u32:011,
8:u33:2011,
11:u41:LINEEND,
8:u42:_x+1,
8:u51:_x+1,
15:u53:NOCAPS/_x+1,
8:u62:_x+1,
8:u72:_x+1,
5:u80:1,
5:u83:1,
8:u84:_x+1,
8:u85:_x+1,
8:u93:_x+1,
8:u94:_x+2,
8:u03:June,
6:u04:17,
5:u05:-,
6:u06:21,
13:u07:_x-1/June,
11:u08:June/17,
8:u09:17/-,
8:u12:june,
6:u13:17,
5:u14:-,
5:u20:J,
6:u21:Ju,
7:u22:Jun,
8:u23:June,
5:u30:e,
6:u31:ne,
7:u32:une,
8:u33:June,
10:u94:HYPHEN,
8:u02:June,
6:u03:17,
5:u04:-,
6:u05:21,
5:u06:,,
11:u07:June/17,
8:u08:17/-,
8:u09:-/21,
13:u0A:_x-1/June,
8:u11:june,
6:u12:17,
5:u13:-,
6:u14:21,
5:u20:1,
6:u21:17,
6:u22:17,
6:u23:17,
5:u30:7,
6:u31:17,
6:u32:17,
6:u33:17,
10:u51:ALLCAP,
17:u53:NOCAPS/ALLCAP,
5:u72:1,
10:u93:HYPHEN,
8:u01:June,
6:u02:17,
5:u03:-,
6:u04:21,
5:u05:,,
8:u06:2007,
8:u07:17/-,
8:u08:-/21,
8:u09:21/,,
11:u0A:June/17,
8:u10:june,
6:u11:17,
5:u12:-,
6:u13:21,
5:u14:,,
5:u20:-,
5:u21:-,
5:u22:-,
5:u23:-,
5:u30:-,
5:u31:-,
5:u32:-,
5:u33:-,
10:u50:ALLCAP,
17:u53:ALLCAP/NOCAPS,
17:u54:NOCAPS/ALLCAP,
5:u70:1,
10:u90:HYPHEN,
9:u94:COMMA,
8:u00:June,
6:u01:17,
5:u02:-,
6:u03:21,
5:u04:,,
8:u05:2007,
8:u07:-/21,
8:u08:21/,,
10:u09:,/2007,
8:u0A:17/-,
6:u10:17,
5:u11:-,
6:u12:21,
5:u13:,,
8:u14:2007,
6:u21:21,
6:u22:21,
6:u23:21,
6:u31:21,
6:u32:21,
6:u33:21,
10:u52:ALLCAP,
17:u54:ALLCAP/NOCAPS,
5:u71:1,
10:u91:HYPHEN,
9:u93:COMMA,
6:u00:17,
5:u01:-,
6:u02:21,
5:u03:,,
8:u04:2007,
8:u07:21/,,
10:u08:,/2007,
13:u09:2007/_x+1,
8:u0A:-/21,
5:u10:-,
6:u11:21,
5:u12:,,
8:u13:2007,
5:u20:,,
5:u21:,,
5:u22:,,
5:u23:,,
5:u30:,,
5:u31:,,
5:u32:,,
5:u33:,,
9:u90:COMMA,
10:u92:HYPHEN,
5:u00:-,
6:u01:21,
5:u02:,,
8:u03:2007,
10:u07:,/2007,
13:u08:2007/_x+1,
8:u0A:21/,,
6:u10:21,
5:u11:,,
8:u12:2007,
7:u22:200,
8:u23:2007,
6:u31:07,
7:u32:007,
8:u33:2007,
9:u91:COMMA,
6:u04:19,
16:u08:Published/19,
10:u09:19/May,
6:u13:19,
6:u03:19,
16:u07:Published/19,
10:u08:19/May,
6:u12:19,
6:u21:19,
6:u22:19,
6:u23:19,
5:u30:9,
6:u31:19,
6:u32:19,
6:u33:19,
6:u02:19,
10:u07:19/May,
16:u0A:Published/19,
6:u11:19,
6:u01:19,
10:u0A:19/May,
6:u10:19,
6:u04:12,
16:u08:Published/12,
10:u09:12/May,
6:u13:12,
6:u03:12,
16:u07:Published/12,
10:u08:12/May,
6:u12:12,
6:u21:12,
6:u22:12,
6:u23:12,
5:u30:2,
6:u31:12,
6:u32:12,
6:u33:12,
6:u02:12,
10:u07:12/May,
16:u0A:Published/12,
6:u11:12,
6:u01:12,
10:u0A:12/May,
6:u10:12,
6:u04:26,
16:u08:Published/26,
10:u09:26/May,
6:u13:26,
6:u03:26,
16:u07:Published/26,
10:u08:26/May,
6:u12:26,
6:u21:26,
6:u22:26,
6:u23:26,
5:u30:6,
6:u31:26,
6:u32:26,
6:u33:26,
6:u02:26,
10:u07:26/May,
16:u0A:Published/26,
6:u11:26,
6:u01:26,
10:u0A:26/May,
6:u10:26,
6:u04:18,
16:u08:Published/18,
10:u09:18/May,
6:u13:18,
6:u03:18,
16:u07:Published/18,
10:u08:18/May,
6:u12:18,
6:u21:18,
6:u22:18,
6:u23:18,
5:u30:8,
6:u31:18,
6:u32:18,
6:u33:18,
6:u02:18,
10:u07:18/May,
16:u0A:Published/18,
6:u11:18,
6:u01:18,
10:u0A:18/May,
6:u10:18,
6:u04:25,
16:u08:Published/25,
10:u09:25/May,
6:u13:25,
6:u03:25,
16:u07:Published/25,
10:u08:25/May,
6:u12:25,
6:u21:25,
6:u22:25,
6:u23:25,
5:u30:5,
6:u31:25,
6:u32:25,
6:u33:25,
6:u02:25,
10:u07:25/May,
16:u0A:Published/25,
6:u11:25,
6:u01:25,
10:u0A:25/May,
6:u10:25,
6:u04:20,
9:u05:April,
16:u08:Published/20,
12:u09:20/April,
6:u13:20,
9:u14:april,
6:u03:20,
9:u04:April,
16:u07:Published/20,
12:u08:20/April,
14:u09:April/2011,
6:u12:20,
9:u13:april,
6:u22:20,
6:u23:20,
5:u30:0,
6:u31:20,
6:u32:20,
6:u33:20,
6:u02:20,
9:u03:April,
12:u07:20/April,
14:u08:April/2011,
16:u0A:Published/20,
6:u11:20,
9:u12:april,
5:u20:A,
6:u21:Ap,
7:u22:Apr,
8:u23:Apri,
5:u30:l,
6:u31:il,
7:u32:ril,
8:u33:pril,
6:u01:20,
9:u02:April,
14:u07:April/2011,
12:u0A:20/April,
6:u10:20,
9:u11:april,
18:u04:electronically,
5:u05::,
6:u06:14,
28:u08:Published/electronically,
20:u09:electronically/:,
18:u13:electronically,
5:u14::,
9:u94:PUNCT,
18:u03:electronically,
5:u04::,
6:u05:14,
12:u06:February,
28:u07:Published/electronically,
20:u08:electronically/:,
8:u09::/14,
18:u12:electronically,
5:u13::,
6:u14:14,
5:u20:e,
6:u21:el,
7:u22:ele,
8:u23:elec,
6:u31:ly,
7:u32:lly,
8:u33:ally,
9:u93:PUNCT,
18:u02:electronically,
5:u03::,
6:u04:14,
12:u05:February,
8:u06:2009,
20:u07:electronically/:,
8:u08::/14,
15:u09:14/February,
28:u0A:Published/electronically,
18:u11:electronically,
5:u12::,
6:u13:14,
12:u14:february,
5:u20::,
5:u21::,
5:u22::,
5:u23::,
5:u30::,
5:u31::,
5:u32::,
5:u33::,
9:u90:PUNCT,
18:u01:electronically,
5:u02::,
6:u03:14,
12:u04:February,
8:u05:2009,
8:u07::/14,
15:u08:14/February,
17:u09:February/2009,
20:u0A:electronically/:,
18:u10:electronically,
5:u11::,
6:u12:14,
12:u13:february,
8:u14:2009,
6:u21:14,
6:u22:14,
6:u23:14,
6:u31:14,
6:u32:14,
6:u33:14,
9:u91:PUNCT,
18:u00:electronically,
5:u01::,
6:u02:14,
12:u03:February,
8:u04:2009,
15:u07:14/February,
17:u08:February/2009,
13:u09:2009/_x+1,
8:u0A::/14,
5:u10::,
6:u11:14,
12:u12:february,
8:u13:2009,
5:u20:F,
6:u21:Fe,
7:u22:Feb,
8:u23:Febr,
6:u31:ry,
7:u32:ary,
8:u33:uary,
9:u92:PUNCT,
5:u00::,
6:u01:14,
12:u02:February,
8:u03:2009,
17:u07:February/2009,
13:u08:2009/_x+1,
15:u0A:14/February,
6:u10:14,
12:u11:february,
8:u12:2009,
8:u23:2009,
6:u31:09,
7:u32:009,
8:u33:2009,
11:u03:Advance,
10:u04:Access,
15:u05:publication,
6:u06:on,
16:u07:_x-1/Advance,
18:u08:Advance/Access,
22:u09:Access/publication,
11:u12:advance,
10:u13:access,
15:u14:publication,
6:u21:Ad,
7:u22:Adv,
8:u23:Adva,
6:u31:ce,
7:u32:nce,
8:u33:ance,
19:u53:INITCAP/INITCAP,
11:u02:Advance,
10:u03:Access,
15:u04:publication,
6:u05:on,
8:u06:July,
18:u07:Advance/Access,
22:u08:Access/publication,
18:u09:publication/on,
16:u0A:_x-1/Advance,
11:u11:advance,
10:u12:access,
15:u13:publication,
6:u14:on,
6:u21:Ac,
7:u22:Acc,
8:u23:Acce,
5:u30:s,
6:u31:ss,
7:u32:ess,
8:u33:cess,
19:u54:INITCAP/INITCAP,
11:u01:Advance,
10:u02:Access,
15:u03:publication,
6:u04:on,
8:u05:July,
6:u06:11,
22:u07:Access/publication,
18:u08:publication/on,
11:u09:on/July,
18:u0A:Advance/Access,
11:u10:advance,
10:u11:access,
15:u12:publication,
6:u13:on,
8:u14:july,
5:u20:p,
6:u21:pu,
7:u22:pub,
8:u23:publ,
5:u30:n,
6:u31:on,
7:u32:ion,
8:u33:tion,
17:u53:NOCAPS/NOCAPS,
11:u00:Advance,
10:u01:Access,
15:u02:publication,
6:u03:on,
8:u04:July,
6:u05:11,
18:u07:publication/on,
11:u08:on/July,
11:u09:July/11,
22:u0A:Access/publication,
10:u10:access,
15:u11:publication,
6:u12:on,
8:u13:july,
6:u14:11,
5:u20:o,
6:u21:on,
6:u22:on,
6:u23:on,
6:u32:on,
6:u33:on,
17:u54:NOCAPS/NOCAPS,
10:u00:Access,
15:u01:publication,
6:u02:on,
8:u03:July,
6:u04:11,
11:u07:on/July,
11:u08:July/11,
8:u09:11/,,
18:u0A:publication/on,
15:u10:publication,
6:u11:on,
8:u12:july,
6:u13:11,
7:u22:Jul,
8:u23:July,
7:u32:uly,
8:u33:July,
15:u00:publication,
6:u01:on,
8:u02:July,
6:u03:11,
11:u07:July/11,
8:u08:11/,,
11:u0A:on/July,
6:u10:on,
8:u11:july,
6:u12:11,
6:u21:11,
6:u22:11,
6:u23:11,
6:u32:11,
6:u33:11,
6:u00:on,
8:u01:July,
6:u02:11,
8:u07:11/,,
11:u0A:July/11,
8:u10:july,
6:u11:11,
8:u00:July,
6:u01:11,
8:u0A:11/,,
6:u10:11,
12:u06:December,
12:u05:December,
5:u06:3,
15:u09:on/December,
12:u14:december,
12:u04:December,
5:u05:3,
15:u08:on/December,
14:u09:December/3,
12:u13:december,
5:u14:3,
12:u03:December,
5:u04:3,
15:u07:on/December,
14:u08:December/3,
7:u09:3/,,
12:u12:december,
5:u13:3,
5:u20:D,
6:u21:De,
7:u22:Dec,
8:u23:Dece,
5:u30:r,
6:u31:er,
7:u32:ber,
8:u33:mber,
12:u02:December,
5:u03:3,
14:u07:December/3,
7:u08:3/,,
15:u0A:on/December,
12:u11:december,
5:u12:3,
5:u20:3,
5:u21:3,
5:u22:3,
5:u23:3,
5:u30:3,
5:u31:3,
5:u32:3,
5:u33:3,
12:u01:December,
5:u02:3,
7:u07:3/,,
14:u0A:December/3,
12:u10:december,
5:u11:3,
12:u00:December,
5:u01:3,
7:u0A:3/,,
5:u10:3,
16:u08:Published/11,
15:u09:11/February,
16:u07:Published/11,
15:u08:11/February,
15:u07:11/February,
16:u0A:Published/11,
15:u0A:11/February,
7:u05:Web,
6:u06:08,
16:u08:Published/on,
10:u09:on/Web,
7:u14:web,
7:u04:Web,
6:u05:08,
5:u06:/,
16:u07:Published/on,
10:u08:on/Web,
10:u09:Web/08,
7:u13:web,
6:u14:08,
7:u03:Web,
6:u04:08,
5:u05:/,
6:u06:20,
10:u07:on/Web,
10:u08:Web/08,
8:u09:08//,
16:u0A:Published/on,
7:u12:web,
6:u13:08,
5:u14:/,
5:u20:W,
6:u21:We,
7:u22:Web,
7:u23:Web,
5:u30:b,
6:u31:eb,
7:u32:Web,
7:u33:Web,
7:u02:Web,
6:u03:08,
5:u04:/,
6:u05:20,
10:u07:Web/08,
8:u08:08//,
8:u09://20,
10:u0A:on/Web,
7:u11:web,
6:u12:08,
5:u13:/,
6:u14:20,
5:u20:0,
6:u21:08,
6:u22:08,
6:u23:08,
6:u31:08,
6:u32:08,
6:u33:08,
7:u01:Web,
6:u02:08,
5:u03:/,
8:u07:08//,
8:u08://20,
8:u09:20//,
10:u0A:Web/08,
7:u10:web,
6:u11:08,
5:u12:/,
5:u20:/,
5:u21:/,
5:u22:/,
5:u23:/,
5:u30:/,
5:u31:/,
5:u32:/,
5:u33:/,
7:u00:Web,
6:u01:08,
5:u02:/,
8:u07://20,
8:u08:20//,
10:u09://2009,
8:u0A:08//,
6:u10:08,
5:u11:/,
6:u00:08,
5:u01:/,
8:u07:20//,
10:u08://2009,
8:u0A://20,
5:u10:/,
5:u00:/,
10:u07://2009,
8:u0A:20//,
10:u04:online,
12:u05:November,
6:u06:27,
20:u08:Published/online,
19:u09:online/November,
10:u13:online,
12:u14:november,
10:u03:online,
12:u04:November,
6:u05:27,
20:u07:Published/online,
19:u08:online/November,
15:u09:November/27,
10:u12:online,
12:u13:november,
6:u14:27,
7:u22:onl,
8:u23:onli,
7:u32:ine,
8:u33:line,
10:u02:online,
12:u03:November,
6:u04:27,
19:u07:online/November,
15:u08:November/27,
8:u09:27/,,
20:u0A:Published/online,
10:u11:online,
12:u12:november,
6:u13:27,
5:u20:N,
6:u21:No,
7:u22:Nov,
8:u23:Nove,
10:u01:online,
12:u02:November,
6:u03:27,
15:u07:November/27,
8:u08:27/,,
10:u09:,/2009,
19:u0A:online/November,
10:u10:online,
12:u11:november,
6:u12:27,
6:u21:27,
6:u22:27,
6:u23:27,
6:u31:27,
6:u32:27,
6:u33:27,
10:u00:online,
12:u01:November,
6:u02:27,
8:u07:27/,,
10:u08:,/2009,
15:u0A:November/27,
12:u10:november,
6:u11:27,
12:u00:November,
6:u01:27,
10:u07:,/2009,
8:u0A:27/,,
6:u10:27,
5:u03:(,
8:u04:2006,
10:u07:_x-1/(,
10:u08:(/2006,
10:u09:2006/-,
5:u12:(,
8:u13:2006,
5:u20:(,
5:u21:(,
5:u22:(,
5:u23:(,
5:u30:(,
5:u31:(,
5:u32:(,
5:u33:(,
15:u54:_x-1/ALLCAP,
15:u90:OPENBRACKET,
5:u02:(,
8:u03:2006,
10:u07:(/2006,
10:u08:2006/-,
10:u09:-/2007,
10:u0A:_x-1/(,
5:u11:(,
8:u12:2006,
8:u23:2006,
6:u31:06,
7:u32:006,
8:u33:2006,
15:u91:OPENBRACKET,
5:u01:(,
8:u02:2006,
10:u07:2006/-,
10:u08:-/2007,
10:u0A:(/2006,
5:u10:(,
8:u11:2006,
5:u82:1,
15:u92:OPENBRACKET,
5:u00:(,
8:u01:2006,
10:u07:-/2007,
10:u0A:2006/-,
8:u10:2006,
6:u03:16,
7:u04:Dec,
8:u05:2008,
11:u07:_x-1/16,
10:u08:16/Dec,
12:u09:Dec/2008,
6:u12:16,
7:u13:dec,
8:u14:2008,
6:u21:16,
6:u22:16,
6:u23:16,
6:u31:16,
6:u32:16,
6:u33:16,
15:u54:_x-1/NOCAPS,
6:u02:16,
7:u03:Dec,
8:u04:2008,
10:u07:16/Dec,
12:u08:Dec/2008,
13:u09:2008/_x+1,
11:u0A:_x-1/16,
6:u11:16,
7:u12:dec,
8:u13:2008,
7:u23:Dec,
5:u30:c,
6:u31:ec,
7:u32:Dec,
7:u33:Dec,
6:u01:16,
7:u02:Dec,
8:u03:2008,
12:u07:Dec/2008,
13:u08:2008/_x+1,
10:u0A:16/Dec,
6:u10:16,
7:u11:dec,
8:u12:2008,
8:u23:2008,
7:u32:008,
8:u33:2008,
9:u03:March,
14:u07:_x-1/March,
12:u08:March/27,
9:u12:march,
7:u22:Mar,
8:u23:Marc,
5:u30:h,
6:u31:ch,
7:u32:rch,
8:u33:arch,
9:u02:March,
12:u07:March/27,
14:u0A:_x-1/March,
9:u11:march,
9:u01:March,
12:u0A:March/27,
9:u10:march,
9:u00:March,
6:u04:10,
12:u07:_x-1/May,
10:u08:May/10,
8:u09:10/-,
6:u13:10,
6:u03:10,
10:u07:May/10,
8:u08:10/-,
8:u09:-/14,
12:u0A:_x-1/May,
6:u12:10,
6:u21:10,
6:u22:10,
6:u23:10,
6:u31:10,
6:u32:10,
6:u33:10,
7:u01:May,
6:u02:10,
8:u06:2004,
8:u07:10/-,
8:u08:-/14,
8:u09:14/,,
10:u0A:May/10,
7:u10:may,
6:u11:10,
7:u00:May,
6:u01:10,
8:u05:2004,
8:u07:-/14,
8:u08:14/,,
10:u09:,/2004,
8:u0A:10/-,
6:u10:10,
8:u14:2004,
6:u00:10,
8:u04:2004,
8:u07:14/,,
10:u08:,/2004,
13:u09:2004/_x+1,
8:u0A:-/14,
8:u13:2004,
8:u03:2004,
10:u07:,/2004,
13:u08:2004/_x+1,
8:u0A:14/,,
8:u12:2004,
8:u23:2004,
6:u31:04,
7:u32:004,
8:u33:2004,
10:u03:August,
15:u07:_x-1/August,
13:u08:August/10,
8:u09:10/,,
10:u12:august,
6:u21:Au,
7:u22:Aug,
8:u23:Augu,
5:u30:t,
6:u31:st,
7:u32:ust,
8:u33:gust,
10:u02:August,
13:u07:August/10,
8:u08:10/,,
15:u0A:_x-1/August,
10:u11:august,
10:u01:August,
8:u07:10/,,
13:u0A:August/10,
10:u10:august,
10:u00:August,
8:u0A:10/,,
7:u03:Jun,
6:u04:16,
8:u05:2010,
12:u07:_x-1/Jun,
10:u08:Jun/16,
11:u09:16/2010,
7:u12:jun,
6:u13:16,
8:u14:2010,
7:u23:Jun,
6:u31:un,
7:u32:Jun,
7:u33:Jun,
7:u02:Jun,
8:u04:2010,
10:u07:Jun/16,
11:u08:16/2010,
13:u09:2010/_x+1,
12:u0A:_x-1/Jun,
7:u11:jun,
8:u13:2010,
7:u01:Jun,
8:u03:2010,
11:u07:16/2010,
13:u08:2010/_x+1,
10:u0A:Jun/16,
7:u10:jun,
8:u12:2010,
8:u23:2010,
7:u32:010,
8:u33:2010,
6:u04:23,
8:u06:1995,
17:u07:_x-1/February,
15:u08:February/23,
8:u09:23/,,
6:u13:23,
6:u03:23,
8:u05:1995,
5:u06:),
15:u07:February/23,
8:u08:23/,,
10:u09:,/1995,
17:u0A:_x-1/February,
6:u12:23,
8:u14:1995,
6:u21:23,
6:u22:23,
6:u23:23,
6:u31:23,
6:u32:23,
6:u33:23,
12:u01:February,
6:u02:23,
8:u04:1995,
5:u05:),
8:u07:23/,,
10:u08:,/1995,
10:u09:1995/),
15:u0A:February/23,
12:u10:february,
6:u11:23,
8:u13:1995,
5:u14:),
14:u94:ENDBRACKET,
12:u00:February,
6:u01:23,
8:u03:1995,
5:u04:),
10:u07:,/1995,
10:u08:1995/),
10:u09:)/_x+1,
8:u0A:23/,,
6:u10:23,
8:u12:1995,
5:u13:),
7:u22:199,
8:u23:1995,
6:u31:95,
7:u32:995,
8:u33:1995,
14:u93:ENDBRACKET,
6:u00:23,
5:u01:,,
8:u02:1995,
5:u03:),
10:u07:1995/),
10:u08:)/_x+1,
10:u0A:,/1995,
5:u10:,,
8:u11:1995,
5:u12:),
5:u20:),
5:u21:),
5:u22:),
5:u23:),
5:u30:),
5:u31:),
5:u32:),
5:u33:),
15:u53:ALLCAP/_x+1,
14:u90:ENDBRACKET,
9:u92:COMMA,
11:u03:January,
8:u06:2005,
16:u07:_x-1/January,
14:u08:January/11,
11:u12:january,
6:u21:Ja,
7:u22:Jan,
8:u23:Janu,
11:u02:January,
8:u05:2005,
14:u07:January/11,
10:u09:,/2005,
16:u0A:_x-1/January,
11:u11:january,
8:u14:2005,
11:u01:January,
8:u04:2005,
10:u08:,/2005,
13:u09:2005/_x+1,
14:u0A:January/11,
11:u10:january,
8:u13:2005,
11:u00:January,
8:u03:2005,
10:u07:,/2005,
13:u08:2005/_x+1,
8:u12:2005,
8:u23:2005,
6:u31:05,
7:u32:005,
8:u33:2005,
8:u05:1991,
9:u08:May/,,
10:u09:,/1991,
8:u14:1991,
18:u53:INITCAP/ALLCAP,
8:u04:1991,
9:u07:May/,,
10:u08:,/1991,
13:u09:1991/_x+1,
8:u13:1991,
18:u54:INITCAP/ALLCAP,
8:u03:1991,
10:u07:,/1991,
13:u08:1991/_x+1,
9:u0A:May/,,
8:u12:1991,
8:u23:1991,
6:u31:91,
7:u32:991,
8:u33:1991,
13:u08:June/2010,
13:u07:June/2010,
8:u05:1994,
14:u07:_x-1/April,
11:u08:April/,,
10:u09:,/1994,
8:u14:1994,
8:u04:1994,
11:u07:April/,,
10:u08:,/1994,
13:u09:1994/_x+1,
14:u0A:_x-1/April,
8:u13:1994,
9:u01:April,
8:u03:1994,
10:u07:,/1994,
13:u08:1994/_x+1,
11:u0A:April/,,
9:u10:april,
8:u12:1994,
8:u23:1994,
6:u31:94,
7:u32:994,
8:u33:1994,
10:u03:Period,
11:u04:covered,
8:u06:from,
15:u07:_x-1/Period,
18:u08:Period/covered,
13:u09:covered/:,
10:u12:period,
11:u13:covered,
6:u21:Pe,
7:u22:Per,
8:u23:Peri,
6:u31:od,
7:u32:iod,
8:u33:riod,
10:u02:Period,
11:u03:covered,
8:u05:from,
5:u06:1,
18:u07:Period/covered,
13:u08:covered/:,
10:u09::/from,
15:u0A:_x-1/Period,
10:u11:period,
11:u12:covered,
8:u14:from,
5:u20:c,
6:u21:co,
7:u22:cov,
8:u23:cove,
7:u32:red,
8:u33:ered,
10:u01:Period,
11:u02:covered,
8:u04:from,
5:u05:1,
6:u06:st,
13:u07:covered/:,
10:u08::/from,
10:u09:from/1,
18:u0A:Period/covered,
10:u10:period,
11:u11:covered,
8:u13:from,
5:u14:1,
10:u00:Period,
11:u01:covered,
8:u03:from,
5:u04:1,
6:u05:st,
7:u06:Jan,
10:u07::/from,
10:u08:from/1,
8:u09:1/st,
13:u0A:covered/:,
11:u10:covered,
8:u12:from,
5:u13:1,
6:u14:st,
5:u20:f,
6:u21:fr,
7:u22:fro,
8:u23:from,
5:u30:m,
6:u31:om,
7:u32:rom,
8:u33:from,
11:u00:covered,
8:u02:from,
5:u03:1,
6:u04:st,
7:u05:Jan,
8:u06:2008,
10:u07:from/1,
8:u08:1/st,
10:u09:st/Jan,
10:u0A::/from,
8:u11:from,
5:u12:1,
6:u13:st,
7:u14:jan,
5:u21:1,
5:u22:1,
5:u23:1,
5:u31:1,
5:u32:1,
5:u33:1,
8:u01:from,
5:u02:1,
6:u03:st,
7:u04:Jan,
8:u07:1/st,
10:u08:st/Jan,
12:u09:Jan/2008,
10:u0A:from/1,
8:u10:from,
5:u11:1,
6:u12:st,
7:u13:jan,
5:u20:s,
6:u21:st,
6:u22:st,
6:u23:st,
6:u32:st,
6:u33:st,
8:u00:from,
5:u01:1,
6:u02:st,
7:u03:Jan,
10:u07:st/Jan,
12:u08:Jan/2008,
8:u0A:1/st,
5:u10:1,
6:u11:st,
7:u12:jan,
7:u23:Jan,
6:u31:an,
7:u32:Jan,
7:u33:Jan,
5:u00:1,
6:u01:st,
7:u02:Jan,
12:u07:Jan/2008,
10:u0A:st/Jan,
6:u10:st,
7:u11:jan,
6:u03:to,
6:u04:31,
7:u06:Dec,
11:u07:_x-1/to,
9:u08:to/31,
9:u09:31/st,
6:u12:to,
6:u13:31,
5:u20:t,
6:u21:to,
6:u22:to,
6:u23:to,
5:u30:o,
6:u31:to,
6:u32:to,
6:u33:to,
6:u02:to,
6:u03:31,
7:u05:Dec,
9:u07:to/31,
9:u08:31/st,
10:u09:st/Dec,
11:u0A:_x-1/to,
6:u11:to,
6:u12:31,
7:u14:dec,
6:u21:31,
6:u22:31,
6:u23:31,
6:u31:31,
6:u32:31,
6:u33:31,
6:u01:to,
6:u02:31,
9:u07:31/st,
10:u08:st/Dec,
12:u09:Dec/2009,
9:u0A:to/31,
6:u10:to,
6:u11:31,
6:u00:to,
6:u01:31,
10:u07:st/Dec,
12:u08:Dec/2009,
9:u0A:31/st,
6:u10:31,
6:u00:31,
12:u07:Dec/2009,
10:u0A:st/Dec,
7:u04:Oct,
11:u07:_x-1/14,
10:u08:14/Oct,
12:u09:Oct/2009,
7:u13:oct,
7:u03:Oct,
10:u07:14/Oct,
12:u08:Oct/2009,
11:u0A:_x-1/14,
7:u12:oct,
5:u20:O,
6:u21:Oc,
7:u22:Oct,
7:u23:Oct,
6:u31:ct,
7:u32:Oct,
7:u33:Oct,
7:u02:Oct,
12:u07:Oct/2009,
10:u0A:14/Oct,
7:u11:oct,
12:u08:April/17,
8:u09:17/,,
12:u07:April/17,
8:u08:17/,,
8:u07:17/,,
12:u0A:April/17,
9:u00:April,
8:u0A:17/,,
12:u08:May/2006,
13:u09:2006/_x+1,
12:u07:May/2006,
13:u08:2006/_x+1,
6:u04:09,
13:u07:_x-1/July,
11:u08:July/09,
8:u09:09/,,
6:u13:09,
6:u03:09,
11:u07:July/09,
8:u08:09/,,
13:u0A:_x-1/July,
6:u12:09,
6:u21:09,
6:u22:09,
6:u23:09,
6:u32:09,
6:u33:09,
6:u02:09,
8:u07:09/,,
11:u0A:July/09,
6:u11:09,
6:u01:09,
8:u0A:09/,,
6:u10:09,
8:u06:2003,
17:u07:_x-1/December,
15:u08:December/11,
8:u05:2003,
15:u07:December/11,
10:u09:,/2003,
17:u0A:_x-1/December,
8:u14:2003,
8:u04:2003,
10:u08:,/2003,
13:u09:2003/_x+1,
15:u0A:December/11,
8:u13:2003,
8:u03:2003,
10:u07:,/2003,
13:u08:2003/_x+1,
8:u12:2003,
8:u23:2003,
6:u31:03,
7:u32:003,
8:u33:2003,
7:u03:Mon,
6:u05:28,
6:u06:13,
12:u07:_x-1/Mon,
11:u08:Mon/Jan,
10:u09:Jan/28,
7:u12:mon,
6:u14:28,
6:u21:Mo,
7:u22:Mon,
7:u23:Mon,
7:u32:Mon,
7:u33:Mon,
7:u02:Mon,
6:u04:28,
6:u05:13,
5:u06::,
11:u07:Mon/Jan,
10:u08:Jan/28,
9:u09:28/13,
12:u0A:_x-1/Mon,
7:u11:mon,
6:u13:28,
6:u14:13,
7:u01:Mon,
6:u03:28,
6:u04:13,
6:u06:26,
10:u07:Jan/28,
9:u08:28/13,
8:u09:13/:,
11:u0A:Mon/Jan,
7:u10:mon,
6:u12:28,
6:u13:13,
6:u21:28,
6:u22:28,
6:u23:28,
6:u31:28,
6:u32:28,
6:u33:28,
7:u00:Mon,
7:u01:Jan,
6:u02:28,
6:u03:13,
6:u05:26,
9:u07:28/13,
8:u08:13/:,
8:u09::/26,
10:u0A:Jan/28,
7:u10:jan,
6:u11:28,
6:u12:13,
6:u14:26,
6:u21:13,
6:u22:13,
6:u23:13,
6:u31:13,
6:u32:13,
6:u33:13,
7:u00:Jan,
6:u01:28,
6:u02:13,
8:u07:13/:,
8:u08::/26,
8:u09:26/:,
9:u0A:28/13,
6:u10:28,
6:u11:13,
6:u00:28,
6:u01:13,
8:u07::/26,
8:u08:26/:,
8:u0A:13/:,
6:u10:13,
6:u00:13,
8:u07:26/:,
11:u09:14/2008,
8:u0A::/26,
11:u08:14/2008,
8:u0A:26/:,
6:u00:26,
11:u07:14/2008,
5:u03:6,
7:u04:Feb,
8:u05:2002,
10:u07:_x-1/6,
9:u08:6/Feb,
12:u09:Feb/2002,
5:u12:6,
7:u13:feb,
8:u14:2002,
5:u20:6,
5:u21:6,
5:u22:6,
5:u23:6,
5:u31:6,
5:u32:6,
5:u33:6,
5:u02:6,
7:u03:Feb,
8:u04:2002,
9:u07:6/Feb,
12:u08:Feb/2002,
13:u09:2002/_x+1,
10:u0A:_x-1/6,
5:u11:6,
7:u12:feb,
8:u13:2002,
7:u23:Feb,
7:u32:Feb,
7:u33:Feb,
5:u01:6,
7:u02:Feb,
8:u03:2002,
12:u07:Feb/2002,
13:u08:2002/_x+1,
9:u0A:6/Feb,
5:u10:6,
7:u11:feb,
8:u12:2002,
8:u23:2002,
6:u31:02,
7:u32:002,
8:u33:2002,
13:u07:_x-1/2004,
13:u07:_x-1/2008,
17:u08:December/2004,
17:u07:December/2004,
11:u03:October,
8:u06:2000,
16:u07:_x-1/October,
14:u08:October/11,
11:u12:october,
8:u23:Octo,
8:u33:ober,
11:u02:October,
8:u05:2000,
14:u07:October/11,
10:u09:,/2000,
16:u0A:_x-1/October,
11:u11:october,
8:u14:2000,
11:u01:October,
8:u04:2000,
10:u08:,/2000,
13:u09:2000/_x+1,
14:u0A:October/11,
11:u10:october,
8:u13:2000,
11:u00:October,
8:u03:2000,
10:u07:,/2000,
13:u08:2000/_x+1,
8:u12:2000,
8:u23:2000,
6:u31:00,
7:u32:000,
8:u33:2000,
12:u07:_x-1/Jan,
10:u08:Jan/10,
10:u07:Jan/10,
12:u0A:_x-1/Jan,
10:u0A:Jan/10,
6:u04:03,
15:u08:December/03,
8:u09:03/,,
6:u13:03,
6:u03:03,
15:u07:December/03,
8:u08:03/,,
6:u12:03,
6:u21:03,
6:u22:03,
6:u23:03,
6:u32:03,
6:u33:03,
6:u02:03,
8:u07:03/,,
15:u0A:December/03,
6:u11:03,
6:u01:03,
8:u0A:03/,,
6:u10:03,
12:u08:May/2010,
12:u07:May/2010,
13:u03:Available,
5:u05:8,
12:u06:November,
18:u07:_x-1/Available,
20:u08:Available/online,
12:u09:online/8,
13:u12:available,
5:u14:8,
6:u21:Av,
7:u22:Ava,
8:u23:Avai,
6:u31:le,
7:u32:ble,
8:u33:able,
13:u02:Available,
5:u04:8,
20:u07:Available/online,
12:u08:online/8,
14:u09:8/November,
18:u0A:_x-1/Available,
13:u11:available,
5:u13:8,
13:u01:Available,
5:u03:8,
12:u07:online/8,
14:u08:8/November,
17:u09:November/2008,
20:u0A:Available/online,
13:u10:available,
5:u12:8,
5:u20:8,
5:u21:8,
5:u22:8,
5:u23:8,
5:u31:8,
5:u32:8,
5:u33:8,
13:u00:Available,
5:u02:8,
14:u07:8/November,
17:u08:November/2008,
12:u0A:online/8,
5:u11:8,
5:u01:8,
17:u07:November/2008,
14:u0A:8/November,
5:u10:8,
6:u05:18,
11:u06:January,
13:u09:online/18,
6:u14:18,
11:u05:January,
8:u06:2010,
13:u08:online/18,
14:u09:18/January,
11:u14:january,
11:u04:January,
13:u07:online/18,
14:u08:18/January,
16:u09:January/2010,
11:u13:january,
14:u07:18/January,
16:u08:January/2010,
13:u0A:online/18,
16:u07:January/2010,
14:u0A:18/January,
6:u05:12,
11:u06:October,
13:u09:online/12,
6:u14:12,
11:u05:October,
13:u08:online/12,
14:u09:12/October,
11:u14:october,
11:u04:October,
13:u07:online/12,
14:u08:12/October,
16:u09:October/2009,
11:u13:october,
14:u07:12/October,
16:u08:October/2009,
13:u0A:online/12,
16:u07:October/2009,
14:u0A:12/October,
8:u04:1997,
17:u08:February/1997,
13:u09:1997/_x+1,
8:u13:1997,
8:u03:1997,
17:u07:February/1997,
13:u08:1997/_x+1,
8:u12:1997,
8:u23:1997,
6:u31:97,
7:u32:997,
8:u33:1997,
13:u05:Available,
10:u06:online,
17:u08:February/2010,
18:u09:2010/Available,
13:u14:available,
13:u04:Available,
10:u05:online,
17:u07:February/2010,
18:u08:2010/Available,
20:u09:Available/online,
13:u13:available,
10:u14:online,
8:u02:2010,
18:u07:2010/Available,
13:u09:online/11,
17:u0A:February/2010,
8:u11:2010,
8:u01:2010,
13:u08:online/11,
11:u09:11/_x+1,
18:u0A:2010/Available,
8:u10:2010,
8:u00:2010,
13:u07:online/11,
11:u08:11/_x+1,
12:u03:Received,
5:u06:5,
17:u07:_x-1/Received,
14:u08:Received/:,
14:u09::/February,
12:u12:received,
5:u20:R,
6:u21:Re,
7:u22:Rec,
8:u23:Rece,
7:u32:ved,
8:u33:ived,
12:u02:Received,
5:u05:5,
14:u07:Received/:,
14:u08::/February,
14:u09:February/5,
17:u0A:_x-1/Received,
12:u11:received,
5:u14:5,
18:u53:ALLCAP/INITCAP,
12:u01:Received,
5:u04:5,
14:u07::/February,
14:u08:February/5,
7:u09:5/,,
14:u0A:Received/:,
12:u10:received,
5:u13:5,
18:u54:ALLCAP/INITCAP,
12:u00:Received,
5:u03:5,
14:u07:February/5,
7:u08:5/,,
14:u0A::/February,
5:u12:5,
5:u20:5,
5:u21:5,
5:u22:5,
5:u23:5,
5:u31:5,
5:u32:5,
5:u33:5,
5:u02:5,
7:u07:5/,,
14:u0A:February/5,
5:u11:5,
5:u01:5,
7:u0A:5/,,
5:u10:5,
8:u04:June,
17:u08:Received/June,
11:u09:June/18,
8:u13:june,
8:u06:2002,
17:u07:Received/June,
11:u08:June/18,
8:u09:18/,,
11:u07:June/18,
8:u08:18/,,
10:u09:,/2002,
17:u0A:Received/June,
8:u07:18/,,
10:u08:,/2002,
11:u0A:June/18,
10:u07:,/2002,
8:u0A:18/,,
9:u08:May/5,
9:u07:May/5,
9:u0A:May/5,
8:u05:2006,
10:u09:,/2006,
8:u14:2006,
10:u08:,/2006,
10:u07:,/2006,
8:u06:2001,
12:u08:April/23,
8:u05:2001,
12:u07:April/23,
10:u09:,/2001,
8:u14:2001,
8:u04:2001,
10:u08:,/2001,
13:u09:2001/_x+1,
12:u0A:April/23,
8:u13:2001,
8:u03:2001,
10:u07:,/2001,
13:u08:2001/_x+1,
8:u12:2001,
8:u23:2001,
6:u31:01,
7:u32:001,
8:u33:2001,
14:u08:October/28,
8:u09:28/,,
14:u07:October/28,
8:u08:28/,,
10:u09:,/2010,
8:u07:28/,,
10:u08:,/2010,
14:u0A:October/28,
10:u07:,/2010,
8:u0A:28/,,
17:u08:December/2001,
17:u07:December/2001,
11:u08:March/,,
10:u09:,/2011,
11:u07:March/,,
10:u08:,/2011,
10:u07:,/2011,
11:u0A:March/,,
15:u08:February/16,
8:u09:16/,,
15:u07:February/16,
8:u08:16/,,
8:u07:16/,,
15:u0A:February/16,
8:u0A:16/,,
7:u03:–,
7:u05:Jun,
12:u07:_x-1/–,
10:u08:–/17,
10:u09:17/Jun,
7:u12:–,
7:u14:jun,
7:u20:–,
7:u21:–,
7:u22:–,
7:u23:–,
7:u30:–,
7:u31:–,
7:u32:–,
7:u33:–,
7:u02:–,
7:u04:Jun,
10:u07:–/17,
10:u08:17/Jun,
12:u09:Jun/2008,
12:u0A:_x-1/–,
7:u11:–,
7:u13:jun,
7:u01:–,
10:u07:17/Jun,
12:u08:Jun/2008,
10:u0A:–/17,
7:u10:–,
7:u00:–,
12:u07:Jun/2008,
10:u0A:17/Jun,
14:u08:March/2004,
14:u07:March/2004,
12:u08:May/2004,
12:u07:May/2004,
14:u08:April/2009,
14:u07:April/2009,
13:u08:July/2007,
13:u07:July/2007,
10:u08:July/8,
7:u09:8/,,
10:u07:July/8,
7:u08:8/,,
7:u07:8/,,
10:u0A:July/8,
7:u0A:8/,,
6:u04:15,
15:u08:February/15,
8:u09:15/,,
6:u13:15,
6:u03:15,
15:u07:February/15,
8:u08:15/,,
6:u12:15,
6:u21:15,
6:u22:15,
6:u23:15,
6:u31:15,
6:u32:15,
6:u33:15,
6:u02:15,
8:u07:15/,,
15:u0A:February/15,
6:u11:15,
6:u01:15,
8:u0A:15/,,
6:u10:15,
13:u08:July/2004,
13:u07:July/2004,
12:u08:March/14,
12:u07:March/14,
10:u09:,/2008,
10:u08:,/2008,
12:u0A:March/14,
10:u07:,/2008,
9:u04:March,
11:u07:_x-1/20,
12:u08:20/March,
14:u09:March/2004,
9:u13:march,
12:u07:20/March,
11:u0A:_x-1/20,
12:u0A:20/March,
10:u08:May/08,
8:u09:08/,,
10:u07:May/08,
8:u08:08/,,
8:u07:08/,,
10:u0A:May/08,
8:u0A:08/,,
14:u08:March/2011,
14:u07:March/2011,
6:u06:12,
10:u08:(/2007,
10:u09:2007/-,
10:u07:(/2007,
10:u08:2007/-,
8:u09:-/12,
8:u02:2007,
10:u07:2007/-,
8:u08:-/12,
8:u09:12/),
10:u0A:(/2007,
8:u11:2007,
8:u01:2007,
8:u07:-/12,
8:u08:12/),
10:u0A:2007/-,
8:u10:2007,
8:u00:2007,
8:u07:12/),
8:u0A:-/12,
5:u05:2,
12:u09:online/2,
5:u14:2,
5:u04:2,
12:u08:online/2,
14:u09:2/February,
5:u13:2,
5:u03:2,
12:u07:online/2,
14:u08:2/February,
17:u09:February/2011,
5:u12:2,
5:u21:2,
5:u22:2,
5:u23:2,
5:u31:2,
5:u32:2,
5:u33:2,
5:u02:2,
14:u07:2/February,
17:u08:February/2011,
12:u0A:online/2,
5:u11:2,
5:u01:2,
17:u07:February/2011,
14:u0A:2/February,
5:u10:2,
13:u07:_x-1/2006,
8:u03:Date,
6:u06:29,
13:u07:_x-1/Date,
10:u08:Date/:,
13:u09::/January,
8:u12:date,
6:u21:Da,
7:u22:Dat,
8:u23:Date,
6:u31:te,
7:u32:ate,
8:u33:Date,
8:u02:Date,
6:u05:29,
10:u07:Date/:,
13:u08::/January,
14:u09:January/29,
13:u0A:_x-1/Date,
8:u11:date,
6:u14:29,
8:u01:Date,
6:u04:29,
13:u07::/January,
14:u08:January/29,
8:u09:29/,,
10:u0A:Date/:,
8:u10:date,
6:u13:29,
8:u00:Date,
6:u03:29,
14:u07:January/29,
8:u08:29/,,
13:u0A::/January,
6:u12:29,
6:u21:29,
6:u22:29,
6:u23:29,
6:u31:29,
6:u32:29,
6:u33:29,
6:u02:29,
8:u07:29/,,
14:u0A:January/29,
6:u11:29,
6:u01:29,
8:u0A:29/,,
6:u10:29,
6:u04:30,
13:u08:August/30,
8:u09:30/,,
6:u13:30,
6:u03:30,
13:u07:August/30,
8:u08:30/,,
6:u12:30,
6:u21:30,
6:u22:30,
6:u23:30,
6:u31:30,
6:u32:30,
6:u33:30,
6:u02:30,
8:u07:30/,,
13:u0A:August/30,
6:u11:30,
6:u01:30,
8:u0A:30/,,
6:u10:30,
8:u03:1998,
5:u05:4,
13:u07:_x-1/1998,
13:u08:1998/June,
10:u09:June/4,
8:u12:1998,
5:u14:4,
8:u23:1998,
6:u31:98,
7:u32:998,
8:u33:1998,
8:u02:1998,
5:u04:4,
13:u07:1998/June,
10:u08:June/4,
10:u09:4/_x+1,
13:u0A:_x-1/1998,
8:u11:1998,
5:u13:4,
8:u01:1998,
5:u03:4,
10:u07:June/4,
10:u08:4/_x+1,
13:u0A:1998/June,
8:u10:1998,
5:u12:4,
5:u20:4,
5:u21:4,
5:u22:4,
5:u23:4,
5:u31:4,
5:u32:4,
5:u33:4,
17:u07:_x-1/November,
14:u08:November/4,
7:u09:4/,,
14:u07:November/4,
7:u08:4/,,
17:u0A:_x-1/November,
5:u02:4,
7:u07:4/,,
14:u0A:November/4,
5:u11:4,
5:u01:4,
7:u0A:4/,,
5:u10:4,
13:u08:October/5,
13:u07:October/5,
13:u0A:October/5,
5:u04:7,
8:u06:1997,
13:u08:October/7,
7:u09:7/,,
5:u13:7,
5:u03:7,
8:u05:1997,
13:u07:October/7,
7:u08:7/,,
10:u09:,/1997,
5:u12:7,
8:u14:1997,
5:u20:7,
5:u21:7,
5:u22:7,
5:u23:7,
5:u31:7,
5:u32:7,
5:u33:7,
5:u02:7,
7:u07:7/,,
10:u08:,/1997,
13:u0A:October/7,
5:u11:7,
5:u01:7,
10:u07:,/1997,
7:u0A:7/,,
5:u10:7,
11:u03:Version,
8:u04:Date,
16:u07:_x-1/Version,
16:u08:Version/Date,
10:u09:Date/:,
11:u12:version,
8:u13:date,
5:u20:V,
6:u21:Ve,
7:u22:Ver,
8:u23:Vers,
8:u33:sion,
11:u02:Version,
16:u07:Version/Date,
14:u09::/November,
16:u0A:_x-1/Version,
11:u11:version,
11:u01:Version,
14:u08::/November,
17:u09:November/2009,
16:u0A:Version/Date,
11:u10:version,
11:u00:Version,
14:u07::/November,
17:u08:November/2009,
17:u07:November/2009,
14:u0A::/November,
13:u07:_x-1/2005,
6:u05:04,
5:u06:-,
13:u07:_x-1/2009,
10:u08:2009/-,
8:u09:-/04,
6:u14:04,
8:u02:2009,
6:u04:04,
10:u07:2009/-,
8:u08:-/04,
8:u09:04/-,
13:u0A:_x-1/2009,
8:u11:2009,
6:u13:04,
8:u01:2009,
6:u03:04,
8:u07:-/04,
8:u08:04/-,
8:u09:-/29,
10:u0A:2009/-,
8:u10:2009,
6:u12:04,
6:u21:04,
6:u22:04,
6:u23:04,
6:u32:04,
6:u33:04,
8:u00:2009,
6:u02:04,
8:u07:04/-,
8:u08:-/29,
11:u09:29/_x+1,
8:u0A:-/04,
6:u11:04,
6:u01:04,
8:u07:-/29,
11:u08:29/_x+1,
8:u0A:04/-,
6:u10:04,
12:u07:_x-1/Oct,
12:u08:Oct/2010,
12:u07:Oct/2010,
12:u0A:_x-1/Oct,
7:u04:Mar,
11:u07:_x-1/15,
10:u08:15/Mar,
12:u09:Mar/2011,
7:u13:mar,
7:u03:Mar,
10:u07:15/Mar,
12:u08:Mar/2011,
11:u0A:_x-1/15,
7:u12:mar,
7:u23:Mar,
6:u31:ar,
7:u32:Mar,
7:u33:Mar,
7:u02:Mar,
12:u07:Mar/2011,
10:u0A:15/Mar,
7:u11:mar,
11:u03:Created,
16:u07:_x-1/Created,
20:u08:Created/December,
17:u09:December/2009,
11:u12:created,
5:u20:C,
6:u21:Cr,
7:u22:Cre,
8:u23:Crea,
7:u32:ted,
8:u33:ated,
11:u02:Created,
20:u07:Created/December,
17:u08:December/2009,
16:u0A:_x-1/Created,
11:u11:created,
11:u01:Created,
17:u07:December/2009,
20:u0A:Created/December,
11:u10:created,
5:u04:.,
11:u05:Februar,
11:u07:_x-1/21,
8:u08:21/.,
13:u09:./Februar,
5:u13:.,
11:u14:februar,
7:u93:DOT,
5:u03:.,
11:u04:Februar,
8:u07:21/.,
13:u08:./Februar,
16:u09:Februar/2003,
11:u0A:_x-1/21,
5:u12:.,
11:u13:februar,
5:u20:.,
5:u21:.,
5:u22:.,
5:u23:.,
5:u30:.,
5:u31:.,
5:u32:.,
5:u33:.,
7:u90:DOT,
5:u02:.,
11:u03:Februar,
13:u07:./Februar,
16:u08:Februar/2003,
8:u0A:21/.,
5:u11:.,
11:u12:februar,
7:u32:uar,
8:u33:ruar,
7:u91:DOT,
6:u00:21,
5:u01:.,
11:u02:Februar,
16:u07:Februar/2003,
13:u0A:./Februar,
5:u10:.,
11:u11:februar,
7:u92:DOT,
12:u08:May/2003,
12:u07:May/2003,
12:u08:March/24,
8:u09:24/-,
12:u07:March/24,
8:u08:24/-,
8:u09:-/26,
8:u07:24/-,
8:u08:-/26,
8:u09:26/,,
12:u0A:March/24,
8:u07:-/26,
8:u08:26/,,
8:u0A:24/-,
6:u00:24,
8:u07:26/,,
8:u0A:-/26,
8:u0A:26/,,
7:u06:Mar,
10:u07:_x-1/,,
8:u08:,/17,
7:u05:Mar,
8:u07:,/17,
9:u09:-/Mar,
10:u0A:_x-1/,,
7:u14:mar,
9:u08:-/Mar,
9:u09:Mar/-,
8:u0A:,/17,
5:u00:,,
9:u07:-/Mar,
9:u08:Mar/-,
10:u09:-/2009,
9:u07:Mar/-,
10:u08:-/2009,
9:u0A:-/Mar,
7:u01:Mar,
10:u07:-/2009,
9:u0A:Mar/-,
7:u10:mar,
11:u08:March/2,
7:u09:2/,,
11:u07:March/2,
7:u08:2/,,
7:u07:2/,,
11:u0A:March/2,
7:u0A:2/,,
20:u08:Received/January,
14:u09:January/13,
8:u06:1994,
20:u07:Received/January,
14:u08:January/13,
8:u09:13/,,
14:u07:January/13,
8:u08:13/,,
20:u0A:Received/January,
8:u07:13/,,
14:u0A:January/13,
8:u0A:13/,,
12:u03:Édition,
6:u04:01,
11:u05:JUILLET,
17:u07:_x-1/Édition,
15:u08:Édition/01,
14:u09:01/JUILLET,
12:u12:édition,
6:u13:01,
11:u14:juillet,
6:u20:É,
7:u21:Éd,
8:u22:Édi,
9:u23:Édit,
12:u02:Édition,
6:u03:01,
11:u04:JUILLET,
15:u07:Édition/01,
14:u08:01/JUILLET,
16:u09:JUILLET/2009,
17:u0A:_x-1/Édition,
12:u11:édition,
6:u12:01,
11:u13:juillet,
6:u21:01,
6:u22:01,
6:u23:01,
6:u32:01,
6:u33:01,
12:u01:Édition,
6:u02:01,
11:u03:JUILLET,
14:u07:01/JUILLET,
16:u08:JUILLET/2009,
15:u0A:Édition/01,
12:u10:édition,
6:u11:01,
11:u12:juillet,
6:u21:JU,
7:u22:JUI,
8:u23:JUIL,
5:u30:T,
6:u31:ET,
7:u32:LET,
8:u33:LLET,
12:u00:Édition,
6:u01:01,
11:u02:JUILLET,
16:u07:JUILLET/2009,
14:u0A:01/JUILLET,
6:u10:01,
11:u11:juillet,
12:u08:May/2009,
12:u07:May/2009,
13:u03:September,
18:u07:_x-1/September,
18:u08:September/2006,
13:u12:september,
5:u20:S,
6:u21:Se,
7:u22:Sep,
8:u23:Sept,
13:u02:September,
18:u07:September/2006,
18:u0A:_x-1/September,
13:u11:september,
17:u08:November/2010,
17:u07:November/2010,
13:u09:online/21,
17:u0A:November/2010,
13:u08:online/21,
11:u09:21/_x+1,
13:u07:online/21,
11:u08:21/_x+1,
18:u09:2011/Available,
6:u06:31,
18:u08:2011/Available,
8:u02:2011,
6:u05:31,
18:u07:2011/Available,
13:u09:online/31,
17:u0A:February/2011,
8:u11:2011,
6:u14:31,
8:u01:2011,
13:u08:online/31,
11:u09:31/_x+1,
18:u0A:2011/Available,
8:u10:2011,
8:u00:2011,
13:u07:online/31,
11:u08:31/_x+1,
11:u03:Printed,
16:u07:_x-1/Printed,
19:u08:Printed/October,
16:u09:October/2010,
11:u12:printed,
6:u21:Pr,
7:u22:Pri,
8:u23:Prin,
8:u33:nted,
11:u02:Printed,
19:u07:Printed/October,
16:u08:October/2010,
16:u0A:_x-1/Printed,
11:u11:printed,
11:u01:Printed,
16:u07:October/2010,
19:u0A:Printed/October,
11:u10:printed,
10:u08:May/18,
10:u07:May/18,
10:u0A:May/18,
6:u05:09,
10:u08:2008/-,
8:u09:-/09,
6:u14:09,
8:u02:2008,
10:u07:2008/-,
8:u08:-/09,
11:u09:09/_x+1,
13:u0A:_x-1/2008,
8:u11:2008,
8:u01:2008,
8:u07:-/09,
11:u08:09/_x+1,
10:u0A:2008/-,
8:u10:2008,
12:u03:Revision,
6:u06:03,
17:u07:_x-1/Revision,
17:u08:Revision/Date,
12:u12:revision,
7:u22:Rev,
8:u23:Revi,
12:u02:Revision,
6:u05:03,
17:u07:Revision/Date,
8:u09::/03,
17:u0A:_x-1/Revision,
12:u11:revision,
6:u14:03,
12:u01:Revision,
6:u06:05,
8:u08::/03,
8:u09:03//,
17:u0A:Revision/Date,
12:u10:revision,
12:u00:Revision,
6:u05:05,
8:u07::/03,
8:u08:03//,
8:u09://05,
6:u14:05,
6:u04:05,
8:u07:03//,
8:u08://05,
8:u09:05//,
8:u0A::/03,
6:u13:05,
6:u03:05,
8:u07://05,
8:u08:05//,
10:u09://2008,
8:u0A:03//,
6:u12:05,
6:u21:05,
6:u22:05,
6:u23:05,
6:u32:05,
6:u33:05,
6:u00:03,
6:u02:05,
8:u07:05//,
10:u08://2008,
8:u0A://05,
6:u11:05,
6:u01:05,
10:u07://2008,
8:u0A:05//,
6:u10:05,
12:u03:Accepted,
17:u07:_x-1/Accepted,
15:u08:Accepted/11,
12:u12:accepted,
8:u33:pted,
12:u02:Accepted,
15:u07:Accepted/11,
14:u09:February/,,
17:u0A:_x-1/Accepted,
12:u11:accepted,
12:u01:Accepted,
14:u08:February/,,
15:u0A:Accepted/11,
12:u10:accepted,
12:u00:Accepted,
14:u07:February/,,
6:u00:11,
14:u0A:February/,,
9:u03:First,
12:u04:Received,
13:u06:September,
14:u07:_x-1/First,
18:u08:First/Received,
15:u09:Received/on,
9:u12:first,
12:u13:received,
6:u21:Fi,
7:u22:Fir,
8:u23:Firs,
7:u32:rst,
8:u33:irst,
9:u02:First,
13:u05:September,
18:u07:First/Received,
15:u08:Received/on,
16:u09:on/September,
14:u0A:_x-1/First,
9:u11:first,
13:u14:september,
9:u01:First,
13:u04:September,
15:u07:Received/on,
16:u08:on/September,
16:u09:September/20,
18:u0A:First/Received,
9:u10:first,
13:u13:september,
9:u00:First,
16:u07:on/September,
16:u08:September/20,
8:u09:20/,,
15:u0A:Received/on,
5:u06:.,
16:u07:September/20,
8:u08:20/,,
16:u0A:on/September,
13:u01:September,
5:u05:.,
8:u07:20/,,
10:u09:2007/.,
16:u0A:September/20,
13:u10:september,
5:u14:.,
7:u94:DOT,
13:u00:September,
10:u08:2007/.,
10:u09:./_x+1,
8:u0A:20/,,
6:u00:20,
10:u07:2007/.,
10:u08:./_x+1,
10:u0A:,/2007,
8:u03:Last,
11:u04:Updated,
13:u07:_x-1/Last,
16:u08:Last/Updated,
14:u09:Updated/on,
8:u12:last,
11:u13:updated,
5:u20:L,
6:u21:La,
7:u22:Las,
8:u23:Last,
7:u32:ast,
8:u33:Last,
8:u02:Last,
11:u03:Updated,
16:u07:Last/Updated,
14:u08:Updated/on,
14:u09:on/January,
13:u0A:_x-1/Last,
8:u11:last,
11:u12:updated,
5:u20:U,
6:u21:Up,
7:u22:Upd,
8:u23:Upda,
8:u01:Last,
11:u02:Updated,
14:u07:Updated/on,
14:u08:on/January,
14:u09:January/20,
16:u0A:Last/Updated,
8:u10:last,
11:u11:updated,
8:u00:Last,
11:u01:Updated,
14:u07:on/January,
14:u08:January/20,
14:u0A:Updated/on,
11:u10:updated,
11:u00:Updated,
14:u07:January/20,
14:u0A:on/January,
14:u0A:January/20,
12:u03:Delivery,
17:u07:_x-1/Delivery,
14:u08:Delivery/:,
12:u12:delivery,
7:u22:Del,
8:u23:Deli,
7:u32:ery,
8:u33:very,
12:u02:Delivery,
14:u07:Delivery/:,
17:u0A:_x-1/Delivery,
12:u11:delivery,
12:u01:Delivery,
14:u0A:Delivery/:,
12:u10:delivery,
12:u00:Delivery,
6:u06:23,
6:u05:23,
13:u09:online/23,
6:u14:23,
13:u08:online/23,
11:u09:23/_x+1,
13:u07:online/23,
11:u08:23/_x+1,
10:u09::/2010,
6:u06:07,
10:u08::/2010,
10:u09:2010/-,
6:u05:07,
10:u07::/2010,
10:u08:2010/-,
8:u09:-/07,
6:u14:07,
6:u04:07,
10:u07:2010/-,
8:u08:-/07,
8:u09:07/-,
10:u0A::/2010,
6:u13:07,
6:u03:07,
8:u07:-/07,
8:u08:07/-,
10:u0A:2010/-,
6:u12:07,
6:u21:07,
6:u22:07,
6:u23:07,
6:u32:07,
6:u33:07,
6:u02:07,
8:u07:07/-,
11:u09:14/_x+1,
8:u0A:-/07,
6:u11:07,
6:u01:07,
11:u08:14/_x+1,
8:u0A:07/-,
6:u10:07,
10:u08:June/,,
10:u07:June/,,
10:u0A:June/,,
9:u06:March,
7:u09::/1,
9:u05:March,
7:u08::/1,
11:u09:1/March,
9:u14:march,
7:u07::/1,
11:u08:1/March,
11:u07:1/March,
7:u0A::/1,
11:u0A:1/March,
15:u09:12/February,
15:u08:12/February,
15:u07:12/February,
15:u0A:12/February,
6:u05:16,
8:u09::/16,
6:u14:16,
8:u08::/16,
14:u09:16/January,
8:u07::/16,
14:u08:16/January,
16:u09:January/2004,
14:u07:16/January,
16:u08:January/2004,
8:u0A::/16,
16:u07:January/2004,
14:u0A:16/January,
13:u04:published,
6:u05:as,
6:u06:an,
19:u08:First/published,
16:u09:published/as,
13:u13:published,
6:u14:as,
13:u03:published,
6:u04:as,
6:u05:an,
11:u06:Advance,
19:u07:First/published,
16:u08:published/as,
9:u09:as/an,
6:u13:as,
6:u14:an,
13:u02:published,
6:u03:as,
6:u04:an,
11:u05:Advance,
11:u06:Article,
16:u07:published/as,
9:u08:as/an,
14:u09:an/Advance,
19:u0A:First/published,
6:u12:as,
6:u13:an,
11:u14:advance,
5:u20:a,
6:u21:as,
6:u22:as,
6:u23:as,
6:u31:as,
6:u32:as,
6:u33:as,
13:u01:published,
6:u02:as,
6:u03:an,
11:u04:Advance,
11:u05:Article,
9:u07:as/an,
14:u08:an/Advance,
19:u09:Advance/Article,
16:u0A:published/as,
6:u11:as,
6:u12:an,
11:u13:advance,
11:u14:article,
6:u21:an,
6:u22:an,
6:u23:an,
6:u32:an,
6:u33:an,
13:u00:published,
6:u01:as,
6:u02:an,
11:u04:Article,
7:u06:the,
14:u07:an/Advance,
19:u08:Advance/Article,
14:u09:Article/on,
9:u0A:as/an,
6:u10:as,
6:u11:an,
11:u13:article,
6:u00:as,
6:u01:an,
11:u03:Article,
7:u05:the,
7:u06:web,
19:u07:Advance/Article,
14:u08:Article/on,
10:u09:on/the,
14:u0A:an/Advance,
6:u10:an,
11:u12:article,
7:u14:the,
6:u21:Ar,
7:u22:Art,
8:u23:Arti,
7:u32:cle,
8:u33:icle,
6:u00:an,
11:u02:Article,
7:u04:the,
7:u05:web,
7:u06:8th,
14:u07:Article/on,
10:u08:on/the,
11:u09:the/web,
19:u0A:Advance/Article,
11:u11:article,
7:u13:the,
11:u01:Article,
7:u03:the,
7:u04:web,
7:u05:8th,
10:u07:on/the,
11:u08:the/web,
11:u09:web/8th,
14:u0A:Article/on,
11:u10:article,
7:u12:the,
7:u14:8th,
6:u21:th,
7:u22:the,
7:u23:the,
6:u31:he,
7:u32:the,
7:u33:the,
11:u00:Article,
7:u02:the,
7:u03:web,
7:u04:8th,
11:u07:the/web,
11:u08:web/8th,
16:u09:8th/November,
10:u0A:on/the,
7:u11:the,
7:u13:8th,
5:u20:w,
6:u21:we,
7:u22:web,
7:u23:web,
7:u32:web,
7:u33:web,
18:u62:CONTAINSDIGITS,
7:u01:the,
7:u02:web,
7:u03:8th,
11:u07:web/8th,
16:u08:8th/November,
17:u09:November/2005,
11:u0A:the/web,
7:u10:the,
7:u12:8th,
6:u21:8t,
7:u22:8th,
7:u23:8th,
6:u31:th,
7:u32:8th,
7:u33:8th,
18:u60:CONTAINSDIGITS,
7:u00:the,
7:u01:web,
7:u02:8th,
16:u07:8th/November,
17:u08:November/2005,
11:u0A:web/8th,
7:u11:8th,
18:u61:CONTAINSDIGITS,
7:u00:web,
7:u01:8th,
17:u07:November/2005,
16:u0A:8th/November,
7:u10:8th,
8:u04:1999,
17:u08:February/1999,
13:u09:1999/_x+1,
8:u13:1999,
8:u03:1999,
17:u07:February/1999,
13:u08:1999/_x+1,
8:u12:1999,
8:u23:1999,
6:u31:99,
7:u32:999,
8:u33:1999,
18:u08:September/2005,
18:u09:2005/Available,
6:u06:25,
18:u07:September/2005,
18:u08:2005/Available,
8:u02:2005,
6:u05:25,
18:u07:2005/Available,
13:u09:online/25,
18:u0A:September/2005,
8:u11:2005,
6:u14:25,
8:u01:2005,
13:u08:online/25,
11:u09:25/_x+1,
18:u0A:2005/Available,
8:u10:2005,
8:u00:2005,
13:u07:online/25,
11:u08:25/_x+1,
14:u08:January/08,
14:u07:January/08,
14:u0A:January/08,
10:u08:July/2,
10:u07:July/2,
10:u0A:July/2,
6:u05:th,
8:u09:5/th,
6:u14:th,
6:u04:th,
8:u08:5/th,
8:u09:th/,,
6:u13:th,
6:u03:th,
8:u07:5/th,
8:u08:th/,,
6:u12:th,
6:u22:th,
6:u23:th,
6:u32:th,
6:u33:th,
6:u02:th,
8:u07:th/,,
8:u0A:5/th,
6:u11:th,
5:u00:5,
6:u01:th,
8:u0A:th/,,
6:u10:th,
10:u04:update,
15:u08:Last/update,
14:u09:update/May,
10:u13:update,
10:u03:update,
6:u06:th,
15:u07:Last/update,
14:u08:update/May,
9:u09:May/5,
10:u12:update,
5:u20:u,
6:u21:up,
7:u22:upd,
8:u23:upda,
8:u33:date,
10:u02:update,
14:u07:update/May,
15:u0A:Last/update,
10:u11:update,
10:u01:update,
14:u0A:update/May,
10:u10:update,
10:u00:update,
7:u04:4th,
13:u08:March/4th,
9:u09:4th/,,
7:u13:4th,
7:u03:4th,
13:u07:March/4th,
9:u08:4th/,,
7:u12:4th,
6:u21:4t,
7:u22:4th,
7:u23:4th,
7:u32:4th,
7:u33:4th,
7:u02:4th,
9:u07:4th/,,
10:u09:2010/,,
13:u0A:March/4th,
7:u11:4th,
7:u01:4th,
10:u08:2010/,,
10:u09:,/_x+1,
9:u0A:4th/,,
7:u10:4th,
7:u00:4th,
10:u07:2010/,,
10:u08:,/_x+1,
10:u0A:,/2010,
13:u08:July/2003,
13:u07:July/2003,
13:u08:July/2005,
13:u07:July/2005,
8:u06:June,
20:u09:electronically/1,
8:u05:June,
20:u08:electronically/1,
10:u09:1/June,
8:u14:june,
20:u07:electronically/1,
10:u08:1/June,
13:u09:June/2007,
10:u07:1/June,
13:u08:June/2007,
20:u0A:electronically/1,
13:u07:June/2007,
10:u0A:1/June,
13:u09:2009/2009,
13:u08:2009/2009,
10:u09:2009/,,
13:u07:2009/2009,
10:u08:2009/,,
10:u0A:,/2009,
10:u07:2009/,,
13:u0A:2009/2009,
8:u09:11/-,
8:u08:11/-,
8:u07:11/-,
8:u09:12/,,
8:u08:12/,,
8:u0A:11/-,
8:u07:12/,,
8:u0A:12/,,
14:u08:April/2004,
14:u07:April/2004,
5:u04:6,
14:u08:February/6,
7:u09:6/,,
5:u13:6,
14:u07:February/6,
7:u08:6/,,
7:u07:6/,,
14:u0A:February/6,
7:u0A:6/,,
14:u08:January/28,
14:u07:January/28,
14:u0A:January/28,
12:u08:August/,,
8:u09:,/20,
12:u07:August/,,
8:u08:,/20,
9:u09:20/th,
8:u07:,/20,
9:u08:20/th,
12:u0A:August/,,
9:u07:20/th,
8:u0A:,/20,
9:u0A:20/th,
11:u08:June/23,
8:u09:23/-,
11:u07:June/23,
8:u08:23/-,
8:u07:23/-,
11:u09:26/2009,
11:u0A:June/23,
11:u08:26/2009,
8:u0A:23/-,
11:u07:26/2009,
6:u05:22,
7:u06:May,
13:u09:online/22,
6:u14:22,
6:u04:22,
8:u06:2006,
13:u08:online/22,
10:u09:22/May,
6:u13:22,
6:u03:22,
13:u07:online/22,
10:u08:22/May,
12:u09:May/2006,
6:u12:22,
6:u21:22,
6:u22:22,
6:u23:22,
6:u31:22,
6:u32:22,
6:u33:22,
6:u02:22,
10:u07:22/May,
13:u0A:online/22,
6:u11:22,
6:u01:22,
10:u0A:22/May,
6:u10:22,
10:u08:June/5,
10:u07:June/5,
10:u0A:June/5,
13:u08:June/2003,
13:u07:June/2003,
11:u07:_x-1/28,
8:u08:28/.,
15:u09:./September,
8:u07:28/.,
15:u08:./September,
18:u09:September/2006,
11:u0A:_x-1/28,
15:u07:./September,
8:u0A:28/.,
15:u0A:./September,
13:u08:July/2011,
13:u07:July/2011,
16:u03:Prepublished,
5:u06:8,
21:u07:_x-1/Prepublished,
23:u08:Prepublished/online,
16:u09:online/April,
16:u12:prepublished,
7:u22:Pre,
8:u23:Prep,
16:u02:Prepublished,
23:u07:Prepublished/online,
16:u08:online/April,
11:u09:April/8,
21:u0A:_x-1/Prepublished,
16:u11:prepublished,
16:u01:Prepublished,
16:u07:online/April,
11:u08:April/8,
23:u0A:Prepublished/online,
16:u10:prepublished,
16:u00:Prepublished,
5:u06:;,
11:u07:April/8,
16:u0A:online/April,
5:u05:;,
10:u09:2010/;,
11:u0A:April/8,
5:u14:;,
5:u04:;,
10:u08:2010/;,
10:u09:;/_x+1,
5:u13:;,
5:u00:8,
5:u03:;,
10:u07:2010/;,
10:u08:;/_x+1,
5:u12:;,
5:u20:;,
5:u21:;,
5:u22:;,
5:u23:;,
5:u30:;,
5:u31:;,
5:u32:;,
5:u33:;,
11:u08:April/2,
11:u07:April/2,
11:u0A:April/2,
10:u09::/June,
10:u08::/June,
11:u09:June/25,
10:u07::/June,
11:u08:June/25,
8:u09:25/,,
11:u07:June/25,
8:u08:25/,,
10:u0A::/June,
8:u07:25/,,
11:u0A:June/25,
8:u0A:25/,,
10:u08:May/12,
10:u07:May/12,
10:u0A:May/12,
12:u07:_x-1/Mar,
10:u08:Mar/25,
10:u07:Mar/25,
12:u0A:_x-1/Mar,
10:u0A:Mar/25,
7:u00:Mar,
8:u03:1996,
7:u04:–,
13:u07:_x-1/1996,
12:u08:1996/–,
12:u09:–/_x+1,
8:u12:1996,
7:u13:–,
8:u23:1996,
6:u31:96,
7:u32:996,
8:u33:1996,
8:u02:1996,
12:u07:1996/–,
12:u08:–/_x+1,
13:u0A:_x-1/1996,
8:u11:1996,
13:u07:_x-1/1997,
9:u03:Issue,
6:u05:01,
14:u07:_x-1/Issue,
11:u08:Issue/:,
8:u09::/01,
9:u12:issue,
6:u14:01,
5:u20:I,
6:u21:Is,
7:u22:Iss,
8:u23:Issu,
6:u31:ue,
7:u32:sue,
8:u33:ssue,
9:u02:Issue,
6:u06:09,
11:u07:Issue/:,
8:u08::/01,
8:u09:01/.,
14:u0A:_x-1/Issue,
9:u11:issue,
9:u01:Issue,
8:u07::/01,
8:u08:01/.,
8:u09:./09,
11:u0A:Issue/:,
9:u10:issue,
9:u00:Issue,
8:u07:01/.,
8:u08:./09,
8:u0A::/01,
8:u07:./09,
8:u0A:01/.,
11:u03:Tuesday,
6:u06:19,
16:u07:_x-1/Tuesday,
13:u08:Tuesday/,,
10:u09:,/June,
11:u12:tuesday,
5:u20:T,
6:u21:Tu,
7:u22:Tue,
8:u23:Tues,
7:u32:day,
8:u33:sday,
11:u02:Tuesday,
6:u05:19,
13:u07:Tuesday/,,
10:u08:,/June,
11:u09:June/19,
16:u0A:_x-1/Tuesday,
11:u11:tuesday,
6:u14:19,
11:u01:Tuesday,
10:u07:,/June,
11:u08:June/19,
8:u09:19/,,
13:u0A:Tuesday/,,
11:u10:tuesday,
11:u00:Tuesday,
11:u07:June/19,
8:u08:19/,,
10:u0A:,/June,
8:u07:19/,,
11:u0A:June/19,
8:u0A:19/,,
10:u07:_x-1/2,
7:u08:2//,
8:u09://28,
7:u07:2//,
8:u08://28,
8:u09:28//,
10:u0A:_x-1/2,
8:u07://28,
8:u08:28//,
10:u09://2007,
7:u0A:2//,
5:u00:2,
8:u07:28//,
10:u08://2007,
8:u0A://28,
10:u07://2007,
8:u0A:28//,
11:u07:_x-1/10,
12:u08:10/April,
14:u09:April/2008,
12:u07:10/April,
14:u08:April/2008,
11:u0A:_x-1/10,
14:u07:April/2008,
12:u0A:10/April,
12:u03:Thursday,
6:u06:17,
17:u07:_x-1/Thursday,
14:u08:Thursday/,,
9:u09:,/May,
12:u12:thursday,
6:u21:Th,
7:u22:Thu,
8:u23:Thur,
12:u02:Thursday,
6:u05:17,
14:u07:Thursday/,,
9:u08:,/May,
10:u09:May/17,
17:u0A:_x-1/Thursday,
12:u11:thursday,
6:u14:17,
12:u01:Thursday,
9:u07:,/May,
10:u08:May/17,
14:u0A:Thursday/,,
12:u10:thursday,
12:u00:Thursday,
10:u07:May/17,
9:u0A:,/May,
10:u0A:May/17,
14:u08:March/2002,
14:u07:March/2002,
10:u04:August,
11:u07:_x-1/22,
13:u08:22/August,
15:u09:August/2006,
10:u13:august,
13:u07:22/August,
15:u08:August/2006,
11:u0A:_x-1/22,
15:u07:August/2006,
13:u0A:22/August,
13:u09:online/19,
13:u08:online/19,
14:u09:19/October,
13:u07:online/19,
14:u08:19/October,
14:u07:19/October,
13:u0A:online/19,
14:u0A:19/October,
13:u08:August/31,
8:u09:31/,,
13:u07:August/31,
8:u08:31/,,
8:u07:31/,,
13:u0A:August/31,
8:u0A:31/,,
16:u08:September/16,
16:u07:September/16,
16:u0A:September/16,
14:u08:December/,,
14:u07:December/,,
14:u0A:December/,,
15:u08:February/20,
15:u07:February/20,
15:u0A:February/20,
8:u05:20th,
10:u07:_x-1/-,
15:u08:-/September,
18:u09:September/20th,
8:u14:20th,
8:u04:20th,
15:u07:-/September,
18:u08:September/20th,
13:u09:20th/_x+1,
10:u0A:_x-1/-,
8:u13:20th,
8:u03:20th,
18:u07:September/20th,
13:u08:20th/_x+1,
15:u0A:-/September,
8:u12:20th,
7:u22:20t,
8:u23:20th,
7:u32:0th,
8:u33:20th,
15:u08:February/22,
8:u09:22/,,
15:u07:February/22,
8:u08:22/,,
8:u07:22/,,
15:u0A:February/22,
8:u0A:22/,,
15:u08:November/25,
15:u07:November/25,
15:u0A:November/25,
17:u08:February/2003,
17:u07:February/2003,
8:u04:30th,
13:u08:June/30th,
13:u09:30th/2009,
8:u13:30th,
8:u03:30th,
13:u07:June/30th,
13:u08:30th/2009,
8:u12:30th,
7:u22:30t,
8:u23:30th,
8:u33:30th,
8:u02:30th,
13:u07:30th/2009,
13:u0A:June/30th,
8:u11:30th,
11:u07:_x-1/11,
8:u09:-/08,
8:u08:-/08,
8:u09:08/-,
11:u0A:_x-1/11,
8:u07:-/08,
8:u08:08/-,
10:u09:-/2011,
8:u07:08/-,
10:u08:-/2011,
8:u0A:-/08,
10:u07:-/2011,
8:u0A:08/-,
17:u08:November/2003,
17:u07:November/2003,
10:u08:10/Oct,
12:u09:Oct/2006,
10:u07:10/Oct,
12:u08:Oct/2006,
12:u07:Oct/2006,
10:u0A:10/Oct,
14:u08:April/2005,
14:u07:April/2005,
12:u08:April/14,
12:u07:April/14,
12:u0A:April/14,
7:u04:—,
11:u06:Ottobre,
10:u08:14/—,
10:u09:—/17,
7:u13:—,
7:u03:—,
11:u05:Ottobre,
10:u07:14/—,
10:u08:—/17,
14:u09:17/Ottobre,
7:u12:—,
11:u14:ottobre,
7:u20:—,
7:u21:—,
7:u22:—,
7:u23:—,
7:u30:—,
7:u31:—,
7:u32:—,
7:u33:—,
7:u02:—,
11:u04:Ottobre,
10:u07:—/17,
14:u08:17/Ottobre,
16:u09:Ottobre/2009,
10:u0A:14/—,
7:u11:—,
11:u13:ottobre,
6:u00:14,
7:u01:—,
11:u03:Ottobre,
14:u07:17/Ottobre,
16:u08:Ottobre/2009,
10:u0A:—/17,
7:u10:—,
11:u12:ottobre,
6:u21:Ot,
7:u22:Ott,
8:u23:Otto,
6:u31:re,
7:u32:bre,
8:u33:obre,
7:u00:—,
11:u02:Ottobre,
16:u07:Ottobre/2009,
14:u0A:17/Ottobre,
11:u11:ottobre,
12:u08:March/18,
12:u07:March/18,
12:u0A:March/18,
7:u05:Feb,
11:u07:_x-1/12,
8:u08:12/-,
9:u09:-/Feb,
7:u14:feb,
8:u07:12/-,
9:u08:-/Feb,
9:u09:Feb/-,
11:u0A:_x-1/12,
9:u07:-/Feb,
9:u08:Feb/-,
8:u0A:12/-,
6:u00:12,
9:u07:Feb/-,
9:u0A:-/Feb,
7:u01:Feb,
9:u0A:Feb/-,
7:u10:feb,
8:u08:16/-,
8:u07:16/-,
8:u0A:16/-,
6:u00:16,
15:u09:12/November,
15:u08:12/November,
17:u09:November/2007,
15:u07:12/November,
17:u08:November/2007,
17:u07:November/2007,
15:u0A:12/November,
18:u07:_x-1/published,
15:u08:published/5,
13:u09:5/October,
15:u07:published/5,
13:u08:5/October,
16:u09:October/2006,
18:u0A:_x-1/published,
13:u07:5/October,
16:u08:October/2006,
10:u09:2006/),
15:u0A:published/5,
16:u07:October/2006,
10:u08:2006/),
13:u0A:5/October,
10:u07:2006/),
16:u0A:October/2006,
15:u09:23/February,
15:u08:23/February,
15:u07:23/February,
13:u0A:online/23,
15:u0A:23/February,
6:u03:PR,
9:u04:China,
12:u05:Received,
11:u07:_x-1/PR,
12:u08:PR/China,
18:u09:China/Received,
6:u12:pr,
9:u13:china,
12:u14:received,
6:u21:PR,
6:u22:PR,
6:u23:PR,
5:u30:R,
6:u31:PR,
6:u32:PR,
6:u33:PR,
6:u02:PR,
9:u03:China,
12:u07:PR/China,
18:u08:China/Received,
15:u09:Received/19,
11:u0A:_x-1/PR,
6:u11:pr,
9:u12:china,
6:u21:Ch,
7:u22:Chi,
8:u23:Chin,
5:u30:a,
6:u31:na,
7:u32:ina,
8:u33:hina,
6:u01:PR,
9:u02:China,
18:u07:China/Received,
15:u08:Received/19,
16:u09:19/September,
12:u0A:PR/China,
6:u10:pr,
9:u11:china,
6:u00:PR,
9:u01:China,
15:u07:Received/19,
16:u08:19/September,
18:u09:September/_x+1,
18:u0A:China/Received,
9:u10:china,
9:u00:China,
16:u07:19/September,
18:u08:September/_x+1,
15:u0A:Received/19,
16:u53:INITCAP/_x+1,
8:u08:20/-,
8:u09:-/27,
8:u07:20/-,
8:u08:-/27,
14:u09:27/October,
8:u07:-/27,
14:u08:27/October,
16:u09:October/2004,
8:u0A:20/-,
14:u07:27/October,
16:u08:October/2004,
8:u0A:-/27,
16:u07:October/2004,
14:u0A:27/October,
13:u09:online/26,
13:u08:online/26,
14:u09:26/October,
13:u07:online/26,
14:u08:26/October,
16:u09:October/2007,
14:u07:26/October,
16:u08:October/2007,
13:u0A:online/26,
16:u07:October/2007,
14:u0A:26/October,
8:u04:1990,
12:u08:May/1990,
13:u09:1990/_x+1,
8:u13:1990,
8:u03:1990,
12:u07:May/1990,
13:u08:1990/_x+1,
8:u12:1990,
8:u23:1990,
6:u31:90,
7:u32:990,
8:u33:1990,
7:u04:Nov,
10:u08:21/Nov,
12:u09:Nov/2006,
7:u13:nov,
7:u03:Nov,
10:u07:21/Nov,
12:u08:Nov/2006,
7:u12:nov,
7:u23:Nov,
5:u30:v,
6:u31:ov,
7:u32:Nov,
7:u33:Nov,
7:u02:Nov,
12:u07:Nov/2006,
10:u0A:21/Nov,
7:u11:nov,
14:u08:(/Received,
15:u09:Received/12,
14:u07:(/Received,
15:u08:Received/12,
15:u07:Received/12,
16:u09:October/2000,
14:u0A:(/Received,
16:u08:October/2000,
15:u0A:Received/12,
16:u07:October/2000,
15:u08:Received/29,
14:u09:29/January,
15:u07:Received/29,
14:u08:29/January,
16:u09:January/2001,
14:u07:29/January,
16:u08:January/2001,
10:u09:2001/;,
15:u0A:Received/29,
16:u07:January/2001,
10:u08:2001/;,
14:u0A:29/January,
6:u00:29,
8:u02:2001,
10:u07:2001/;,
16:u0A:January/2001,
8:u11:2001,
12:u08:May/2007,
12:u07:May/2007,
13:u08:June/2005,
13:u07:June/2005,
17:u08:February/2007,
17:u07:February/2007,
8:u06:1993,
8:u05:1993,
10:u09:,/1993,
8:u14:1993,
8:u04:1993,
10:u08:,/1993,
13:u09:1993/_x+1,
8:u13:1993,
8:u03:1993,
10:u07:,/1993,
13:u08:1993/_x+1,
8:u12:1993,
8:u23:1993,
6:u31:93,
7:u32:993,
8:u33:1993,
17:u08:February/2001,
17:u07:February/2001,
7:u03:Rev,
8:u05:date,
12:u07:_x-1/Rev,
9:u08:Rev/.,
10:u09:./date,
7:u12:rev,
8:u14:date,
7:u23:Rev,
6:u31:ev,
7:u32:Rev,
7:u33:Rev,
7:u02:Rev,
8:u04:date,
6:u06:01,
9:u07:Rev/.,
10:u08:./date,
10:u09:date/:,
12:u0A:_x-1/Rev,
7:u11:rev,
7:u01:Rev,
8:u03:date,
10:u07:./date,
10:u08:date/:,
9:u0A:Rev/.,
7:u10:rev,
5:u20:d,
6:u21:da,
7:u22:dat,
8:u23:date,
7:u00:Rev,
8:u02:date,
10:u07:date/:,
11:u09:01/June,
10:u0A:./date,
5:u00:.,
8:u01:date,
11:u08:01/June,
13:u09:June/2010,
10:u0A:date/:,
8:u00:date,
11:u07:01/June,
11:u0A:01/June,
5:u03:9,
10:u07:_x-1/9,
9:u08:9/May,
12:u09:May/2008,
5:u12:9,
5:u20:9,
5:u21:9,
5:u22:9,
5:u23:9,
5:u31:9,
5:u32:9,
5:u33:9,
5:u02:9,
9:u07:9/May,
12:u08:May/2008,
10:u0A:_x-1/9,
5:u11:9,
5:u01:9,
12:u07:May/2008,
9:u0A:9/May,
5:u10:9,
11:u07:_x-1/23,
11:u0A:_x-1/23,
10:u03:Friday,
6:u05:10,
15:u07:_x-1/Friday,
19:u08:Friday/December,
15:u09:December/10,
10:u12:friday,
6:u14:10,
6:u21:Fr,
7:u22:Fri,
8:u23:Frid,
8:u33:iday,
10:u02:Friday,
19:u07:Friday/December,
15:u08:December/10,
15:u0A:_x-1/Friday,
10:u11:friday,
10:u01:Friday,
15:u07:December/10,
19:u0A:Friday/December,
10:u10:friday,
10:u00:Friday,
15:u0A:December/10,
22:u08:Thursday/September,
16:u09:September/17,
22:u07:Thursday/September,
16:u08:September/17,
16:u07:September/17,
22:u0A:Thursday/September,
16:u0A:September/17,
11:u04:updated,
16:u08:Last/updated,
14:u09:updated/on,
11:u03:updated,
16:u07:Last/updated,
14:u08:updated/on,
9:u09:on/14,
11:u02:updated,
14:u07:updated/on,
9:u08:on/14,
16:u0A:Last/updated,
11:u01:updated,
9:u07:on/14,
14:u0A:updated/on,
11:u00:updated,
9:u0A:on/14,
11:u08:July/13,
11:u07:July/13,
11:u0A:July/13,
11:u08:June/27,
11:u07:June/27,
11:u0A:June/27,
8:u09:-/05,
8:u08:-/05,
8:u09:05/-,
8:u07:-/05,
8:u08:05/-,
10:u09:-/2006,
8:u07:05/-,
10:u08:-/2006,
8:u0A:-/05,
10:u07:-/2006,
8:u0A:05/-,
13:u03:Codesmith,
18:u07:_x-1/Codesmith,
16:u08:Codesmith/10,
13:u12:codesmith,
6:u21:Co,
7:u22:Cod,
8:u23:Code,
7:u32:ith,
8:u33:mith,
13:u02:Codesmith,
16:u07:Codesmith/10,
18:u0A:_x-1/Codesmith,
13:u11:codesmith,
13:u01:Codesmith,
16:u0A:Codesmith/10,
13:u10:codesmith,
13:u00:Codesmith,
7:u05:Nov,
11:u07:_x-1/13,
8:u08:13/-,
9:u09:-/Nov,
7:u14:nov,
8:u07:13/-,
9:u08:-/Nov,
9:u09:Nov/-,
11:u0A:_x-1/13,
9:u07:-/Nov,
9:u08:Nov/-,
8:u0A:13/-,
9:u07:Nov/-,
9:u0A:-/Nov,
7:u01:Nov,
9:u0A:Nov/-,
7:u10:nov,
13:u08:October/6,
13:u07:October/6,
13:u0A:October/6,
16:u08:20/September,
15:u09:September/,,
16:u07:20/September,
15:u08:September/,,
15:u07:September/,,
16:u0A:20/September,
15:u0A:September/,,
15:u08:August/2008,
15:u07:August/2008,
12:u08:April/21,
12:u07:April/21,
12:u0A:April/21,
10:u05:August,
8:u08:-/11,
13:u09:11/August,
10:u14:august,
8:u07:-/11,
13:u08:11/August,
15:u09:August/2003,
13:u07:11/August,
15:u08:August/2003,
8:u0A:-/11,
15:u07:August/2003,
13:u0A:11/August,
8:u04:last,
10:u05:change,
10:u08:(/last,
15:u09:last/change,
8:u13:last,
10:u14:change,
8:u03:last,
10:u04:change,
6:u06:22,
10:u07:(/last,
15:u08:last/change,
12:u09:change/:,
10:u13:change,
5:u20:l,
6:u21:la,
7:u22:las,
8:u23:last,
8:u33:last,
8:u02:last,
10:u03:change,
15:u07:last/change,
12:u08:change/:,
8:u09::/22,
10:u0A:(/last,
10:u12:change,
6:u21:ch,
7:u22:cha,
8:u23:chan,
6:u31:ge,
7:u32:nge,
8:u33:ange,
8:u01:last,
10:u02:change,
12:u07:change/:,
8:u08::/22,
8:u09:22/.,
15:u0A:last/change,
10:u11:change,
8:u00:last,
10:u01:change,
8:u07::/22,
8:u08:22/.,
8:u09:./08,
12:u0A:change/:,
10:u10:change,
10:u00:change,
8:u07:22/.,
8:u08:./08,
8:u09:08/.,
8:u0A::/22,
8:u07:./08,
8:u08:08/.,
10:u09:./2003,
8:u0A:22/.,
6:u00:22,
8:u07:08/.,
10:u08:./2003,
10:u09:2003/),
8:u0A:./08,
10:u07:./2003,
10:u08:2003/),
8:u0A:08/.,
8:u02:2003,
10:u07:2003/),
10:u0A:./2003,
8:u11:2003,
11:u07:_x-1/29,
8:u08:29/-,
8:u07:29/-,
11:u0A:_x-1/29,
8:u0A:29/-,
11:u07:_x-1/30,
8:u08:30/-,
8:u07:30/-,
11:u0A:_x-1/30,
8:u0A:30/-,
6:u00:30,
16:u07:_x-1/Updated,
13:u08:Updated/:,
10:u09::/July,
13:u07:Updated/:,
10:u08::/July,
11:u09:July/19,
16:u0A:_x-1/Updated,
10:u07::/July,
11:u08:July/19,
13:u0A:Updated/:,
11:u07:July/19,
10:u0A::/July,
11:u0A:July/19,
11:u08:June/16,
11:u07:June/16,
11:u0A:June/16,
11:u07:_x-1/31,
8:u08:31/-,
8:u07:31/-,
11:u0A:_x-1/31,
8:u0A:31/-,
6:u03:02,
11:u07:_x-1/02,
8:u08:02/-,
6:u12:02,
6:u21:02,
6:u22:02,
6:u23:02,
6:u32:02,
6:u33:02,
6:u02:02,
8:u07:02/-,
8:u09:09/-,
11:u0A:_x-1/02,
6:u11:02,
6:u01:02,
8:u08:09/-,
8:u0A:02/-,
6:u10:02,
6:u00:02,
8:u07:09/-,
8:u0A:-/09,
8:u0A:09/-,
10:u09:14/May,
10:u08:14/May,
12:u09:May/2010,
10:u07:14/May,
10:u0A:14/May,
16:u08:October/2003,
16:u07:October/2003,
6:u04:1a,
12:u08:Issue/1a,
15:u09:1a/February,
6:u13:1a,
6:u03:1a,
12:u07:Issue/1a,
15:u08:1a/February,
17:u09:February/2002,
6:u12:1a,
6:u21:1a,
6:u22:1a,
6:u23:1a,
6:u31:1a,
6:u32:1a,
6:u33:1a,
6:u02:1a,
15:u07:1a/February,
17:u08:February/2002,
12:u0A:Issue/1a,
6:u11:1a,
6:u01:1a,
17:u07:February/2002,
15:u0A:1a/February,
6:u10:1a,
6:u03:No,
11:u07:_x-1/No,
8:u08:No/.,
8:u09:./05,
6:u12:no,
6:u22:No,
6:u23:No,
6:u31:No,
6:u32:No,
6:u33:No,
6:u02:No,
8:u07:No/.,
8:u08:./05,
11:u0A:_x-1/No,
6:u11:no,
6:u01:No,
8:u07:./05,
10:u09://2011,
8:u0A:No/.,
6:u10:no,
6:u00:No,
10:u08://2011,
8:u0A:./05,
10:u07://2011,
11:u07:_x-1/05,
11:u0A:_x-1/05,
6:u00:05,
15:u08:November/18,
15:u07:November/18,
15:u0A:November/18,
8:u09:./04,
8:u08:./04,
8:u09:04/.,
8:u07:./04,
8:u08:04/.,
10:u09:./2007,
8:u07:04/.,
10:u08:./2007,
8:u0A:./04,
10:u07:./2007,
8:u0A:04/.,
8:u04:1970,
13:u08:June/1970,
13:u09:1970/_x+1,
8:u13:1970,
8:u03:1970,
13:u07:June/1970,
13:u08:1970/_x+1,
8:u12:1970,
7:u22:197,
8:u23:1970,
6:u31:70,
7:u32:970,
8:u33:1970,
15:u08:Published/:,
15:u07:Published/:,
9:u09:1/May,
9:u08:1/May,
12:u09:May/2007,
15:u0A:Published/:,
9:u07:1/May,
9:u0A:1/May,
6:u03:06,
11:u07:_x-1/06,
8:u08:06/-,
6:u12:06,
6:u21:06,
6:u22:06,
6:u23:06,
6:u32:06,
6:u33:06,
6:u02:06,
8:u07:06/-,
11:u0A:_x-1/06,
6:u11:06,
6:u01:06,
8:u0A:06/-,
6:u10:06,
6:u00:06,
7:u05:–,
15:u08:August/2007,
12:u09:2007/–,
7:u14:–,
15:u07:August/2007,
12:u08:2007/–,
12:u07:2007/–,
15:u0A:August/2007,
13:u08:July/2010,
13:u07:July/2010,
12:u08:April/27,
12:u07:April/27,
12:u0A:April/27,
13:u03:Melbourne,
18:u07:_x-1/Melbourne,
16:u08:Melbourne/25,
13:u09:25/August,
13:u12:melbourne,
6:u21:Me,
7:u22:Mel,
8:u23:Melb,
7:u32:rne,
8:u33:urne,
13:u02:Melbourne,
16:u07:Melbourne/25,
13:u08:25/August,
15:u09:August/2004,
18:u0A:_x-1/Melbourne,
13:u11:melbourne,
13:u01:Melbourne,
13:u07:25/August,
15:u08:August/2004,
16:u0A:Melbourne/25,
13:u10:melbourne,
13:u00:Melbourne,
15:u07:August/2004,
13:u0A:25/August,
13:u07:_x-1/2010,
13:u03:retrieved,
18:u07:_x-1/retrieved,
16:u08:retrieved/on,
9:u09:on/07,
13:u12:retrieved,
5:u20:r,
6:u21:re,
7:u22:ret,
8:u23:retr,
8:u33:eved,
13:u02:retrieved,
16:u07:retrieved/on,
9:u08:on/07,
18:u0A:_x-1/retrieved,
13:u11:retrieved,
13:u01:retrieved,
9:u07:on/07,
16:u0A:retrieved/on,
13:u10:retrieved,
13:u00:retrieved,
9:u0A:on/07,
6:u00:07,
10:u07:_x-1/4,
9:u08:4/May,
12:u09:May/2009,
9:u07:4/May,
10:u0A:_x-1/4,
9:u0A:4/May,
13:u04:Submitted,
18:u08:Date/Submitted,
18:u09:Submitted/2007,
13:u13:submitted,
13:u03:Submitted,
18:u07:Date/Submitted,
18:u08:Submitted/2007,
13:u12:submitted,
6:u21:Su,
7:u22:Sub,
8:u23:Subm,
8:u33:tted,
13:u02:Submitted,
18:u07:Submitted/2007,
18:u0A:Date/Submitted,
13:u11:submitted,
13:u01:Submitted,
18:u0A:Submitted/2007,
13:u10:submitted,
13:u00:Submitted,
17:u08:December/2003,
17:u07:December/2003,
6:u03:le,
12:u05:novembre,
11:u07:_x-1/le,
8:u08:le/8,
14:u09:8/novembre,
6:u12:le,
12:u14:novembre,
6:u21:le,
6:u22:le,
6:u23:le,
6:u32:le,
6:u33:le,
6:u02:le,
12:u04:novembre,
8:u07:le/8,
14:u08:8/novembre,
17:u09:novembre/2006,
11:u0A:_x-1/le,
6:u11:le,
12:u13:novembre,
6:u01:le,
12:u03:novembre,
14:u07:8/novembre,
17:u08:novembre/2006,
8:u0A:le/8,
6:u10:le,
12:u12:novembre,
5:u20:n,
6:u21:no,
7:u22:nov,
8:u23:nove,
8:u33:mbre,
6:u00:le,
12:u02:novembre,
17:u07:novembre/2006,
14:u0A:8/novembre,
12:u11:novembre,
7:u05:Fri,
9:u09::/Fri,
7:u14:fri,
7:u04:Fri,
9:u08::/Fri,
9:u09:Fri/,,
7:u13:fri,
7:u03:Fri,
9:u07::/Fri,
9:u08:Fri/,,
8:u09:,/31,
7:u12:fri,
7:u23:Fri,
5:u30:i,
6:u31:ri,
7:u32:Fri,
7:u33:Fri,
7:u02:Fri,
9:u07:Fri/,,
8:u08:,/31,
10:u09:31/Mar,
9:u0A::/Fri,
7:u11:fri,
7:u01:Fri,
8:u07:,/31,
10:u08:31/Mar,
12:u09:Mar/2000,
9:u0A:Fri/,,
7:u10:fri,
7:u00:Fri,
10:u07:31/Mar,
12:u08:Mar/2000,
8:u0A:,/31,
12:u07:Mar/2000,
10:u0A:31/Mar,
14:u08:15/January,
16:u09:January/2009,
14:u07:15/January,
16:u08:January/2009,
16:u07:January/2009,
14:u0A:15/January,
11:u07:_x-1/08,
8:u09:09/.,
11:u0A:_x-1/08,
8:u08:09/.,
10:u09:./2011,
8:u07:09/.,
10:u08:./2011,
8:u0A:./09,
10:u07:./2011,
8:u0A:09/.,
8:u09:14/-,
8:u08:14/-,
10:u09:-/_x+1,
8:u07:14/-,
10:u08:-/_x+1,
10:u06:Monday,
11:u07:_x-1/17,
10:u05:Monday,
15:u09:2010/Monday,
11:u0A:_x-1/17,
10:u14:monday,
10:u04:Monday,
15:u08:2010/Monday,
16:u09:Monday/March,
10:u13:monday,
10:u03:Monday,
15:u07:2010/Monday,
16:u08:Monday/March,
14:u09:March/_x+1,
10:u12:monday,
8:u23:Mond,
8:u33:nday,
10:u02:Monday,
16:u07:Monday/March,
14:u08:March/_x+1,
15:u0A:2010/Monday,
10:u11:monday,
18:u09:Submitted/2004,
18:u08:Submitted/2004,
10:u09:2004/-,
18:u07:Submitted/2004,
10:u08:2004/-,
8:u09:-/11,
8:u02:2004,
6:u06:04,
10:u07:2004/-,
18:u0A:Submitted/2004,
8:u11:2004,
8:u01:2004,
10:u0A:2004/-,
8:u10:2004,
8:u00:2004,
11:u09:04/_x+1,
11:u08:04/_x+1,
7:u05:Mai,
8:u08:23/.,
9:u09:./Mai,
7:u14:mai,
7:u04:Mai,
8:u07:23/.,
9:u08:./Mai,
12:u09:Mai/2004,
7:u13:mai,
7:u03:Mai,
9:u07:./Mai,
12:u08:Mai/2004,
8:u0A:23/.,
7:u12:mai,
7:u22:Mai,
7:u23:Mai,
6:u31:ai,
7:u32:Mai,
7:u33:Mai,
7:u02:Mai,
12:u07:Mai/2004,
9:u0A:./Mai,
7:u11:mai,
11:u08:June/14,
11:u07:June/14,
11:u0A:June/14,
8:u08:13/.,
8:u07:13/.,
10:u09:./2010,
8:u0A:13/.,
10:u08:./2010,
10:u07:./2010,
9:u03:Final,
14:u07:_x-1/Final,
18:u08:Final/February,
15:u09:February/19,
9:u12:final,
7:u22:Fin,
8:u23:Fina,
6:u31:al,
7:u32:nal,
8:u33:inal,
9:u02:Final,
18:u07:Final/February,
15:u08:February/19,
14:u0A:_x-1/Final,
9:u11:final,
9:u01:Final,
15:u07:February/19,
18:u0A:Final/February,
9:u10:final,
9:u00:Final,
15:u0A:February/19,
8:u08:12/.,
8:u07:12/.,
8:u0A:12/.,
9:u08:May/3,
9:u07:May/3,
9:u0A:May/3,
10:u08:15/May,
10:u07:15/May,
10:u0A:15/May,
8:u00:2008,
11:u09:07/_x+1,
11:u08:07/_x+1,
8:u03:Mars,
13:u07:_x-1/Mars,
13:u08:Mars/2003,
8:u12:mars,
8:u23:Mars,
6:u31:rs,
7:u32:ars,
8:u33:Mars,
8:u02:Mars,
13:u07:Mars/2003,
13:u0A:_x-1/Mars,
8:u11:mars,
9:u05:Prior,
12:u06:Revision,
10:u07:_x-1/.,
7:u08:./1,
11:u09:1/Prior,
9:u14:prior,
9:u04:Prior,
12:u05:Revision,
8:u06:Date,
7:u07:./1,
11:u08:1/Prior,
18:u09:Prior/Revision,
10:u0A:_x-1/.,
9:u13:prior,
12:u14:revision,
9:u03:Prior,
12:u04:Revision,
8:u05:Date,
11:u07:1/Prior,
18:u08:Prior/Revision,
17:u09:Revision/Date,
7:u0A:./1,
9:u12:prior,
12:u13:revision,
8:u23:Prio,
6:u31:or,
7:u32:ior,
8:u33:rior,
9:u02:Prior,
18:u07:Prior/Revision,
11:u0A:1/Prior,
9:u11:prior,
9:u01:Prior,
18:u0A:Prior/Revision,
9:u10:prior,
9:u00:Prior,
15:u09:February/05,
15:u08:February/05,
8:u09:05/,,
15:u07:February/05,
8:u08:05/,,
8:u07:05/,,
15:u0A:February/05,
8:u0A:05/,,
15:u08:November/19,
15:u07:November/19,
15:u0A:November/19,
10:u08:May/13,
10:u07:May/13,
10:u0A:May/13,
13:u08:July/2000,
13:u07:July/2000,
11:u03:Edition,
16:u07:_x-1/Edition,
13:u08:Edition//,
10:u09://June,
11:u12:edition,
5:u20:E,
6:u21:Ed,
7:u22:Edi,
8:u23:Edit,
11:u02:Edition,
13:u07:Edition//,
10:u08://June,
13:u09:June/2005,
16:u0A:_x-1/Edition,
11:u11:edition,
11:u01:Edition,
10:u07://June,
13:u0A:Edition//,
11:u10:edition,
11:u00:Edition,
10:u0A://June,
12:u08:March/26,
12:u07:March/26,
12:u0A:March/26,
7:u04:Jul,
10:u08:23/Jul,
12:u09:Jul/2008,
7:u13:jul,
7:u03:Jul,
10:u07:23/Jul,
12:u08:Jul/2008,
7:u12:jul,
7:u23:Jul,
6:u31:ul,
7:u32:Jul,
7:u33:Jul,
7:u02:Jul,
12:u07:Jul/2008,
10:u0A:23/Jul,
7:u11:jul,
11:u07:_x-1/09,
8:u09:./12,
6:u06:10,
8:u08:./12,
8:u09:12/.,
11:u0A:_x-1/09,
8:u07:./12,
8:u09:./10,
6:u00:09,
8:u08:./10,
11:u09:10/_x+1,
8:u0A:./12,
8:u07:./10,
11:u08:10/_x+1,
9:u08:May/7,
7:u09:7/-,
9:u07:May/7,
7:u08:7/-,
8:u09:-/10,
7:u07:7/-,
8:u08:-/10,
9:u0A:May/7,
8:u07:-/10,
7:u0A:7/-,
5:u00:7,
8:u0A:-/10,
8:u0A:14/-,
10:u03:Posted,
15:u07:_x-1/Posted,
13:u08:Posted/on,
9:u09:on/23,
10:u12:posted,
6:u21:Po,
7:u22:Pos,
8:u23:Post,
8:u33:sted,
10:u02:Posted,
13:u07:Posted/on,
9:u08:on/23,
15:u0A:_x-1/Posted,
10:u11:posted,
10:u01:Posted,
9:u07:on/23,
13:u0A:Posted/on,
10:u10:posted,
10:u00:Posted,
9:u0A:on/23,
10:u09:-/2003,
10:u08:-/2003,
10:u07:-/2003,
8:u08:15/-,
8:u07:15/-,
8:u0A:15/-,
6:u00:15,
13:u08:June/2009,
13:u07:June/2009,
13:u08:June/2006,
13:u07:June/2006,
12:u03:Dokument,
27:u04:Veröffentlichungsdatum,
17:u07:_x-1/Dokument,
36:u08:Dokument/Veröffentlichungsdatum,
29:u09:Veröffentlichungsdatum/:,
12:u12:dokument,
27:u13:veröffentlichungsdatum,
6:u21:Do,
7:u22:Dok,
8:u23:Doku,
6:u31:nt,
7:u32:ent,
8:u33:ment,
12:u02:Dokument,
27:u03:Veröffentlichungsdatum,
36:u07:Dokument/Veröffentlichungsdatum,
29:u08:Veröffentlichungsdatum/:,
8:u09::/05,
17:u0A:_x-1/Dokument,
12:u11:dokument,
27:u12:veröffentlichungsdatum,
9:u23:Verö,
6:u31:um,
7:u32:tum,
8:u33:atum,
12:u01:Dokument,
27:u02:Veröffentlichungsdatum,
29:u07:Veröffentlichungsdatum/:,
8:u08::/05,
36:u0A:Dokument/Veröffentlichungsdatum,
12:u10:dokument,
27:u11:veröffentlichungsdatum,
12:u00:Dokument,
27:u01:Veröffentlichungsdatum,
8:u07::/05,
29:u0A:Veröffentlichungsdatum/:,
27:u10:veröffentlichungsdatum,
27:u00:Veröffentlichungsdatum,
8:u0A::/05,
8:u04:1992,
18:u08:September/1992,
13:u09:1992/_x+1,
8:u13:1992,
8:u03:1992,
18:u07:September/1992,
13:u08:1992/_x+1,
8:u12:1992,
8:u23:1992,
6:u31:92,
7:u32:992,
8:u33:1992,
13:u08:August/11,
10:u09:11/–,
13:u07:August/11,
10:u08:11/–,
10:u09:–/13,
10:u07:11/–,
10:u08:–/13,
13:u0A:August/11,
10:u07:–/13,
10:u0A:11/–,
10:u0A:–/13,
12:u09:online/:,
5:u06:7,
12:u08:online/:,
9:u09::/May,
5:u05:7,
12:u07:online/:,
9:u08::/May,
9:u09:May/7,
5:u14:7,
9:u07::/May,
12:u0A:online/:,
9:u0A::/May,
6:u05:02,
8:u09:-/02,
6:u14:02,
6:u04:02,
8:u08:-/02,
11:u09:02/_x+1,
6:u13:02,
8:u07:-/02,
11:u08:02/_x+1,
7:u08:6/-,
7:u07:6/-,
11:u09:10/June,
11:u08:10/June,
7:u0A:6/-,
5:u00:6,
11:u07:10/June,
11:u0A:10/June,
11:u07:_x-1/19,
8:u08:19/-,
8:u07:19/-,
11:u0A:_x-1/19,
8:u0A:19/-,
6:u00:19,
10:u08:21/Jan,
12:u09:Jan/2010,
10:u07:21/Jan,
12:u08:Jan/2010,
12:u07:Jan/2010,
10:u0A:21/Jan,
5:u04:9,
10:u08:July/9,
7:u09:9/,,
5:u13:9,
10:u07:July/9,
7:u08:9/,,
7:u07:9/,,
10:u0A:July/9,
7:u0A:9/,,
6:u05:±,
5:u06:9,
15:u08:September/7,
8:u09:7/±,
6:u14:±,
6:u04:±,
5:u05:9,
15:u07:September/7,
8:u08:7/±,
8:u09:±/9,
6:u13:±,
5:u14:9,
6:u03:±,
8:u07:7/±,
8:u08:±/9,
15:u0A:September/7,
6:u12:±,
6:u20:±,
6:u21:±,
6:u22:±,
6:u23:±,
6:u30:±,
6:u31:±,
6:u32:±,
6:u33:±,
6:u02:±,
8:u07:±/9,
8:u0A:7/±,
6:u11:±,
6:u01:±,
8:u0A:±/9,
6:u10:±,
6:u00:±,
14:u08:April/2010,
14:u07:April/2010,
14:u08:March/2008,
14:u07:March/2008,
6:u05:15,
8:u09:,/15,
6:u14:15,
8:u08:,/15,
16:u09:15/September,
8:u07:,/15,
16:u08:15/September,
18:u09:September/2011,
16:u07:15/September,
18:u08:September/2011,
8:u0A:,/15,
18:u07:September/2011,
16:u0A:15/September,
11:u08:June/26,
8:u09:26/-,
11:u07:June/26,
8:u08:26/-,
8:u07:26/-,
11:u0A:June/26,
8:u0A:26/-,
10:u09:2005/.,
8:u0A:-/29,
10:u08:2005/.,
10:u07:2005/.,
10:u0A:,/2005,
16:u08:January/2005,
16:u07:January/2005,
13:u08:October/9,
8:u09:9/th,
13:u07:October/9,
8:u08:9/th,
8:u07:9/th,
13:u0A:October/9,
10:u09:2006/,,
8:u0A:9/th,
5:u00:9,
10:u08:2006/,,
6:u00:th,
10:u07:2006/,,
10:u0A:,/2006,
10:u08:(/2010,
10:u07:(/2010,
8:u09:05/),
10:u0A:(/2010,
8:u08:05/),
8:u07:05/),
19:u08:Published/April,
12:u09:April/14,
19:u07:Published/April,
19:u0A:Published/April,
12:u09:April/11,
12:u08:April/11,
12:u07:April/11,
12:u0A:April/11,
7:u06:Nov,
15:u09:Submitted/:,
15:u08:Submitted/:,
9:u09::/Nov,
15:u07:Submitted/:,
9:u08::/Nov,
9:u09:Nov/.,
9:u07::/Nov,
9:u08:Nov/.,
7:u09:./1,
15:u0A:Submitted/:,
9:u07:Nov/.,
7:u09:1/,,
9:u0A::/Nov,
7:u08:1/,,
9:u0A:Nov/.,
7:u00:Nov,
7:u07:1/,,
7:u0A:1/,,
12:u08:March/28,
12:u07:March/28,
12:u0A:March/28,
18:u08:September/2004,
18:u07:September/2004,
7:u03:del,
11:u05:Gennaio,
12:u07:_x-1/del,
10:u08:del/20,
14:u09:20/Gennaio,
7:u12:del,
11:u14:gennaio,
6:u21:de,
7:u22:del,
7:u23:del,
6:u31:el,
7:u32:del,
7:u33:del,
7:u02:del,
11:u04:Gennaio,
10:u07:del/20,
14:u08:20/Gennaio,
16:u09:Gennaio/2005,
12:u0A:_x-1/del,
7:u11:del,
11:u13:gennaio,
7:u01:del,
11:u03:Gennaio,
14:u07:20/Gennaio,
16:u08:Gennaio/2005,
10:u0A:del/20,
7:u10:del,
11:u12:gennaio,
5:u20:G,
6:u21:Ge,
7:u22:Gen,
8:u23:Genn,
6:u31:io,
7:u32:aio,
8:u33:naio,
7:u00:del,
11:u02:Gennaio,
16:u07:Gennaio/2005,
14:u0A:20/Gennaio,
11:u11:gennaio,
7:u08:4/-,
7:u07:4/-,
8:u09:21/-,
8:u08:21/-,
10:u09:-/2010,
7:u0A:4/-,
5:u00:4,
8:u07:21/-,
10:u08:-/2010,
10:u07:-/2010,
8:u0A:21/-,
8:u05:1999,
12:u08:02/April,
14:u09:April/1999,
8:u14:1999,
12:u07:02/April,
14:u08:April/1999,
14:u07:April/1999,
12:u0A:02/April,
15:u08:August/2009,
15:u07:August/2009,
8:u08:22/-,
8:u07:22/-,
8:u0A:22/-,
7:u03:Aug,
12:u07:_x-1/Aug,
10:u08:Aug/12,
7:u12:aug,
7:u23:Aug,
5:u30:g,
6:u31:ug,
7:u32:Aug,
7:u33:Aug,
7:u02:Aug,
8:u06:Last,
10:u07:Aug/12,
12:u0A:_x-1/Aug,
7:u11:aug,
7:u01:Aug,
8:u05:Last,
10:u06:update,
13:u09:2008/Last,
10:u0A:Aug/12,
7:u10:aug,
8:u14:last,
7:u00:Aug,
8:u04:Last,
10:u05:update,
8:u06:date,
13:u08:2008/Last,
15:u09:Last/update,
10:u14:update,
13:u07:2008/Last,
15:u09:update/date,
10:u0A:,/2008,
15:u08:update/date,
13:u09:date/_x+1,
13:u0A:2008/Last,
15:u07:update/date,
13:u08:date/_x+1,
10:u08:Aug/18,
10:u07:Aug/18,
10:u0A:Aug/18,
12:u07:_x-1/Dec,
10:u08:Dec/31,
10:u07:Dec/31,
12:u0A:_x-1/Dec,
7:u01:Dec,
10:u0A:Dec/31,
7:u10:dec,
7:u00:Dec,
10:u06:August,
13:u09:Updated/:,
12:u09::/August,
12:u08::/August,
12:u09:August/9,
12:u07::/August,
12:u08:August/9,
12:u07:August/9,
12:u0A::/August,
12:u0A:August/9,
17:u08:Date/Received,
14:u09:Received/:,
17:u07:Date/Received,
17:u0A:Date/Received,
7:u06:06/,
14:u08:Issue/date,
7:u05:06/,
14:u07:Issue/date,
9:u09::/06/,
7:u14:06/,
7:u04:06/,
9:u08::/06/,
12:u09:06//2010,
14:u0A:Issue/date,
7:u13:06/,
17:u53:ALLCAP/ALLCAP,
7:u03:06/,
9:u07::/06/,
12:u08:06//2010,
7:u12:06/,
7:u22:06/,
7:u23:06/,
6:u31:6/,
7:u32:06/,
7:u33:06/,
17:u54:ALLCAP/ALLCAP,
7:u02:06/,
12:u07:06//2010,
9:u0A::/06/,
7:u11:06/,
13:u08:July/2006,
13:u07:July/2006,
9:u08:May/8,
9:u07:May/8,
9:u0A:May/8,
14:u09:February/3,
14:u08:February/3,
14:u07:February/3,
14:u0A:February/3,
15:u03:Publication,
20:u07:_x-1/Publication,
20:u08:Publication/Date,
15:u02:Publication,
5:u06:4,
20:u07:Publication/Date,
11:u09::/March,
20:u0A:_x-1/Publication,
15:u01:Publication,
11:u08::/March,
11:u09:March/4,
20:u0A:Publication/Date,
15:u00:Publication,
11:u07::/March,
11:u08:March/4,
11:u07:March/4,
11:u0A::/March,
11:u0A:March/4,
8:u08:29/.,
8:u07:29/.,
8:u09:10/.,
8:u08:10/.,
10:u09:./2009,
8:u0A:29/.,
8:u07:10/.,
10:u08:./2009,
8:u0A:./10,
10:u07:./2009,
8:u0A:10/.,
11:u09:March/1,
11:u08:March/1,
11:u07:March/1,
11:u0A:March/1,
5:u06:2,
9:u09:May/2,
9:u08:May/2,
9:u07:May/2,
9:u0A:May/2,
6:u06:18,
8:u09:-/18,
8:u08:-/18,
11:u09:18/_x+1,
8:u07:-/18,
11:u08:18/_x+1,
7:u06:–,
12:u08:2004/May,
9:u09:May/8,
12:u07:2004/May,
9:u09:8/–,
13:u0A:_x-1/2004,
9:u08:8/–,
10:u09:–/11,
12:u0A:2004/May,
9:u07:8/–,
10:u08:–/11,
10:u07:–/11,
9:u0A:8/–,
20:u08:Publication/date,
20:u07:Publication/date,
10:u09:May/19,
20:u0A:Publication/date,
10:u08:May/19,
10:u07:May/19,
10:u0A:May/19,
10:u09:2007/,,
10:u08:2007/,,
10:u07:2007/,,
10:u0A:-/2007,
8:u03:Join,
7:u06:Sep,
13:u07:_x-1/Join,
13:u08:Join/Date,
8:u12:join,
6:u21:Jo,
7:u22:Joi,
8:u23:Join,
6:u31:in,
7:u32:oin,
8:u33:Join,
8:u02:Join,
7:u05:Sep,
13:u07:Join/Date,
9:u09::/Sep,
13:u0A:_x-1/Join,
8:u11:join,
7:u14:sep,
8:u01:Join,
7:u04:Sep,
9:u08::/Sep,
12:u09:Sep/2004,
13:u0A:Join/Date,
8:u10:join,
7:u13:sep,
8:u00:Join,
7:u03:Sep,
9:u07::/Sep,
12:u08:Sep/2004,
7:u12:sep,
7:u23:Sep,
5:u30:p,
6:u31:ep,
7:u32:Sep,
7:u33:Sep,
7:u02:Sep,
12:u07:Sep/2004,
9:u0A::/Sep,
7:u11:sep,
11:u07:_x-1/27,
8:u08:27/-,
8:u07:27/-,
11:u0A:_x-1/27,
8:u0A:27/-,
6:u00:27,
16:u08:September/29,
16:u07:September/29,
16:u0A:September/29,
8:u08:28/-,
8:u07:28/-,
8:u0A:28/-,
10:u08:11/Nov,
12:u09:Nov/2004,
10:u07:11/Nov,
12:u08:Nov/2004,
12:u07:Nov/2004,
10:u0A:11/Nov,
10:u08:14/Mar,
12:u09:Mar/2006,
10:u07:14/Mar,
12:u08:Mar/2006,
12:u07:Mar/2006,
10:u0A:14/Mar,
15:u08:February/11,
15:u07:February/11,
15:u0A:February/11,
13:u08:June/1992,
13:u07:June/1992,
17:u08:November/1992,
17:u07:November/1992,
13:u08:July/1994,
13:u07:July/1994,
11:u07:_x-1/25,
14:u08:25/January,
14:u07:25/January,
11:u0A:_x-1/25,
14:u0A:25/January,
17:u09:February/2010,
10:u07:_x-1/5,
11:u08:5/April,
14:u09:April/2010,
11:u07:5/April,
10:u0A:_x-1/5,
11:u0A:5/April,
11:u07:_x-1/24,
15:u08:24/February,
15:u07:24/February,
11:u0A:_x-1/24,
15:u0A:24/February,
9:u04:Dated,
11:u08:(/Dated,
11:u09:Dated/:,
9:u13:dated,
9:u03:Dated,
7:u06:Feb,
11:u07:(/Dated,
11:u08:Dated/:,
8:u09::/10,
9:u12:dated,
9:u02:Dated,
11:u07:Dated/:,
8:u08::/10,
10:u09:10/Feb,
11:u0A:(/Dated,
9:u11:dated,
9:u01:Dated,
8:u07::/10,
10:u08:10/Feb,
12:u09:Feb/2010,
11:u0A:Dated/:,
9:u10:dated,
9:u00:Dated,
10:u07:10/Feb,
12:u08:Feb/2010,
10:u09:2010/),
8:u0A::/10,
12:u07:Feb/2010,
10:u08:2010/),
10:u0A:10/Feb,
10:u07:2010/),
12:u0A:Feb/2010,
12:u08:16/April,
12:u07:16/April,
12:u0A:16/April,
12:u08:29/March,
14:u09:March/2010,
12:u07:29/March,
14:u08:March/2010,
14:u07:March/2010,
12:u0A:29/March,
12:u08:23/March,
12:u07:23/March,
12:u0A:23/March,
15:u08:Received/23,
14:u09:23/October,
15:u07:Received/23,
14:u08:23/October,
14:u07:23/October,
15:u0A:Received/23,
14:u0A:23/October,
6:u03:in,
9:u04:final,
8:u05:form,
11:u07:_x-1/in,
12:u08:in/final,
14:u09:final/form,
6:u12:in,
9:u13:final,
8:u14:form,
5:u20:i,
6:u21:in,
6:u22:in,
6:u23:in,
6:u32:in,
6:u33:in,
6:u02:in,
9:u03:final,
8:u04:form,
12:u07:in/final,
14:u08:final/form,
11:u09:form/12,
11:u0A:_x-1/in,
6:u11:in,
8:u13:form,
6:u21:fi,
7:u22:fin,
8:u23:fina,
6:u01:in,
9:u02:final,
8:u03:form,
14:u07:final/form,
11:u08:form/12,
12:u0A:in/final,
6:u10:in,
8:u12:form,
6:u21:fo,
7:u22:for,
8:u23:form,
6:u31:rm,
7:u32:orm,
8:u33:form,
6:u00:in,
9:u01:final,
8:u02:form,
11:u07:form/12,
17:u09:November/2006,
14:u0A:final/form,
8:u11:form,
9:u00:final,
8:u01:form,
17:u08:November/2006,
11:u0A:form/12,
8:u10:form,
8:u00:form,
17:u07:November/2006,
10:u08:21/May,
10:u07:21/May,
10:u0A:21/May,
12:u08:15/April,
12:u07:15/April,
12:u0A:15/April,
10:u08:11/May,
10:u07:11/May,
10:u0A:11/May,
14:u08:4/February,
14:u07:4/February,
14:u0A:4/February,
10:u07:_x-1/1,
14:u09:March/1994,
14:u08:March/1994,
10:u0A:_x-1/1,
14:u07:March/1994,
11:u08:13/July,
13:u09:July/2010,
11:u07:13/July,
11:u0A:13/July,
15:u08:September/3,
10:u09:3/2010,
15:u07:September/3,
10:u08:3/2010,
10:u07:3/2010,
15:u0A:September/3,
15:u08:19/November,
15:u07:19/November,
15:u0A:19/November,
15:u08:27/November,
15:u07:27/November,
15:u0A:27/November,
14:u08:21/October,
14:u07:21/October,
14:u0A:21/October,
15:u08:17/December,
15:u07:17/December,
15:u0A:17/December,
13:u08:August/19,
11:u09:19/2009,
13:u07:August/19,
11:u08:19/2009,
11:u07:19/2009,
13:u0A:August/19,
15:u08:12/December,
15:u07:12/December,
15:u0A:12/December,
9:u08:May/9,
9:u07:May/9,
9:u0A:May/9,
8:u06:1992,
12:u08:April/30,
8:u05:1992,
12:u07:April/30,
10:u09:,/1992,
8:u14:1992,
10:u08:,/1992,
12:u0A:April/30,
10:u07:,/1992,
8:u04:1996,
16:u08:October/1996,
13:u09:1996/_x+1,
8:u13:1996,
16:u07:October/1996,
13:u08:1996/_x+1,
17:u08:February/1993,
17:u07:February/1993,
8:u04:1989,
10:u08:(/1989,
10:u09:1989/),
8:u13:1989,
8:u03:1989,
10:u07:(/1989,
10:u08:1989/),
7:u09:)/.,
8:u12:1989,
7:u22:198,
8:u23:1989,
6:u31:89,
7:u32:989,
8:u33:1989,
8:u02:1989,
10:u07:1989/),
7:u08:)/.,
10:u0A:(/1989,
8:u11:1989,
8:u01:1989,
5:u02:),
7:u07:)/.,
10:u0A:1989/),
8:u10:1989,
5:u11:),
14:u91:ENDBRACKET,
10:u08:(/1994,
10:u09:1994/),
10:u07:(/1994,
10:u08:1994/),
8:u02:1994,
10:u07:1994/),
10:u0A:(/1994,
8:u11:1994,
8:u01:1994,
10:u0A:1994/),
8:u10:1994,
8:u04:1987,
10:u08:(/1987,
10:u09:1987/),
8:u13:1987,
8:u03:1987,
10:u07:(/1987,
10:u08:1987/),
8:u12:1987,
8:u23:1987,
6:u31:87,
7:u32:987,
8:u33:1987,
8:u02:1987,
10:u07:1987/),
10:u0A:(/1987,
8:u11:1987,
8:u01:1987,
10:u0A:1987/),
8:u10:1987,
5:u04:(,
7:u08:(/(,
10:u09:(/1994,
5:u13:(,
15:u93:OPENBRACKET,
7:u07:(/(,
7:u0A:(/(,
13:u07:_x-1/1991,
10:u08:1991/.,
8:u02:1991,
10:u07:1991/.,
13:u0A:_x-1/1991,
8:u11:1991,
13:u07:_x-1/1992,
10:u08:1992/,,
8:u02:1992,
10:u07:1992/,,
13:u0A:_x-1/1992,
8:u11:1992,
8:u04:1988,
10:u08:(/1988,
10:u09:1988/),
8:u13:1988,
8:u03:1988,
10:u07:(/1988,
10:u08:1988/),
8:u12:1988,
8:u23:1988,
6:u31:88,
7:u32:988,
8:u33:1988,
8:u02:1988,
10:u07:1988/),
10:u0A:(/1988,
8:u11:1988,
8:u01:1988,
10:u0A:1988/),
8:u10:1988,
15:u08:August/1992,
10:u09:1992/.,
15:u07:August/1992,
10:u08:1992/.,
10:u07:1992/.,
15:u0A:August/1992,
10:u08:(/1992,
10:u09:1992/),
10:u07:(/1992,
10:u08:1992/),
10:u07:1992/),
10:u0A:(/1992,
8:u01:1992,
10:u0A:1992/),
8:u10:1992,
13:u08:July/1992,
13:u07:July/1992,
13:u0A:July/1992,
12:u08:Aug/1991,
10:u09:1991/.,
12:u07:Aug/1991,
12:u0A:Aug/1991,
13:u07:_x-1/1987,
10:u08:1987/.,
10:u07:1987/.,
13:u0A:_x-1/1987,
8:u03:1978,
13:u07:_x-1/1978,
10:u08:1978/.,
8:u12:1978,
8:u23:1978,
6:u31:78,
7:u32:978,
8:u33:1978,
8:u02:1978,
10:u07:1978/.,
13:u0A:_x-1/1978,
8:u11:1978,
9:u04:1994a,
11:u08:(/1994a,
11:u09:1994a/),
9:u13:1994a,
9:u03:1994a,
11:u07:(/1994a,
11:u08:1994a/),
9:u12:1994a,
6:u31:4a,
7:u32:94a,
8:u33:994a,
9:u02:1994a,
11:u07:1994a/),
11:u0A:(/1994a,
9:u11:1994a,
9:u01:1994a,
11:u0A:1994a/),
9:u10:1994a,
10:u08:(/1996,
10:u09:1996/),
10:u07:(/1996,
10:u08:1996/),
7:u09:)/,,
10:u07:1996/),
7:u08:)/,,
10:u0A:(/1996,
8:u01:1996,
7:u07:)/,,
10:u0A:1996/),
8:u10:1996,
10:u09:Feb/20,
10:u08:Feb/20,
9:u09:20/10,
10:u07:Feb/20,
9:u08:20/10,
8:u09:10/),
9:u07:20/10,
8:u08:10/),
10:u0A:Feb/20,
7:u00:Feb,
8:u07:10/),
9:u0A:20/10,
12:u09:April/20,
12:u08:April/20,
12:u07:April/20,
12:u0A:April/20,
7:u06:200,
15:u08:Published/6,
14:u09:6/December,
7:u05:200,
5:u06:6,
15:u07:Published/6,
14:u08:6/December,
16:u09:December/200,
7:u14:200,
7:u04:200,
5:u05:6,
14:u07:6/December,
16:u08:December/200,
9:u09:200/6,
15:u0A:Published/6,
7:u13:200,
5:u14:6,
7:u03:200,
16:u07:December/200,
9:u08:200/6,
10:u09:6/_x+1,
14:u0A:6/December,
7:u12:200,
7:u23:200,
7:u32:200,
7:u33:200,
7:u02:200,
9:u07:200/6,
10:u08:6/_x+1,
16:u0A:December/200,
7:u11:200,
7:u06:994,
7:u05:994,
9:u09:1/994,
7:u14:994,
7:u04:994,
9:u08:1/994,
12:u09:994/_x+1,
7:u13:994,
7:u03:994,
9:u07:1/994,
12:u08:994/_x+1,
7:u12:994,
6:u21:99,
7:u22:994,
7:u23:994,
7:u33:994,
15:u08:15/December,
15:u07:15/December,
15:u0A:15/December,
10:u07:_x-1/7,
14:u08:7/February,
14:u07:7/February,
10:u0A:_x-1/7,
14:u0A:7/February,
7:u09:,/1,
7:u08:,/1,
7:u09:1/9,
7:u07:,/1,
7:u08:1/9,
7:u09:9/9,
7:u07:1/9,
7:u08:9/9,
7:u09:9/7,
7:u0A:,/1,
7:u07:9/9,
7:u08:9/7,
10:u09:7/_x+1,
7:u0A:1/9,
7:u07:9/7,
10:u08:7/_x+1,
7:u0A:9/9,
14:u08:11/January,
14:u07:11/January,
14:u0A:11/January,
17:u09:November/2010,
15:u08:25/November,
15:u07:25/November,
15:u0A:25/November,
15:u08:10/December,
15:u07:10/December,
15:u0A:10/December,
15:u08:30/November,
15:u07:30/November,
15:u0A:30/November,
10:u08:6/June,
10:u07:6/June,
10:u0A:6/June,
7:u06:003,
14:u08:2/December,
14:u09:December/2,
7:u05:003,
14:u07:2/December,
14:u08:December/2,
9:u09:2/003,
7:u14:003,
7:u04:003,
14:u07:December/2,
9:u08:2/003,
9:u09:003/;,
14:u0A:2/December,
7:u13:003,
7:u03:003,
9:u07:2/003,
9:u08:003/;,
14:u0A:December/2,
7:u12:003,
6:u21:00,
7:u22:003,
7:u23:003,
7:u33:003,
7:u02:003,
9:u07:003/;,
9:u0A:2/003,
7:u11:003,
12:u08:19/April,
12:u07:19/April,
12:u0A:19/April,
12:u08:30/April,
12:u07:30/April,
12:u0A:30/April,
12:u08:28/April,
12:u07:28/April,
12:u0A:28/April,
10:u09:May/11,
10:u08:May/11,
10:u07:May/11,
10:u0A:May/11,
15:u08:20/February,
15:u09:February/20,
15:u07:20/February,
15:u0A:20/February,
11:u08:July/12,
11:u07:July/12,
11:u0A:July/12,
10:u08:13/May,
10:u07:13/May,
10:u0A:13/May,
17:u08:November/1991,
17:u07:November/1991,
18:u08:September/1987,
13:u09:1987/_x+1,
18:u07:September/1987,
13:u08:1987/_x+1,
11:u08:June/20,
11:u07:June/20,
11:u0A:June/20,
13:u08:October/,,
13:u07:October/,,
13:u09:1995/_x+1,
13:u08:1995/_x+1,
13:u0A:October/,,
8:u06:1996,
8:u05:1996,
10:u09:,/1996,
8:u14:1996,
10:u08:,/1996,
10:u07:,/1996,
8:u03:Sept,
13:u07:_x-1/Sept,
10:u08:Sept/.,
10:u09:./1996,
8:u12:sept,
6:u31:pt,
7:u32:ept,
8:u33:Sept,
8:u02:Sept,
10:u07:Sept/.,
10:u08:./1996,
13:u0A:_x-1/Sept,
8:u11:sept,
8:u01:Sept,
10:u07:./1996,
10:u0A:Sept/.,
8:u10:sept,
14:u08:January/26,
14:u07:January/26,
14:u0A:January/26,
13:u08:January/6,
13:u07:January/6,
13:u0A:January/6,
14:u08:March/1987,
14:u07:March/1987,
14:u0A:March/1987,
18:u08:September/1996,
18:u07:September/1996,
11:u08:March/7,
11:u07:March/7,
11:u0A:March/7,
12:u08:March/29,
12:u07:March/29,
12:u0A:March/29,
11:u08:June/15,
11:u07:June/15,
11:u0A:June/15,
10:u08:June/3,
10:u07:June/3,
10:u0A:June/3,
16:u08:January/1996,
16:u07:January/1996,
14:u08:October/15,
14:u07:October/15,
14:u0A:October/15,
8:u05:1998,
11:u08:29/June,
13:u09:June/1998,
8:u14:1998,
8:u04:1998,
11:u07:29/June,
13:u08:June/1998,
13:u09:1998/_x+1,
8:u13:1998,
13:u07:June/1998,
13:u08:1998/_x+1,
11:u0A:29/June,
15:u08:August/1991,
15:u07:August/1991,
11:u06:Revised,
14:u08:April/1995,
10:u09:1995/-,
11:u05:Revised,
14:u07:April/1995,
10:u08:1995/-,
13:u09:-/Revised,
11:u14:revised,
11:u04:Revised,
10:u07:1995/-,
13:u08:-/Revised,
16:u09:Revised/July,
14:u0A:April/1995,
11:u13:revised,
8:u01:1995,
11:u03:Revised,
13:u07:-/Revised,
16:u08:Revised/July,
13:u09:July/1995,
10:u0A:1995/-,
8:u10:1995,
11:u12:revised,
7:u32:sed,
8:u33:ised,
8:u00:1995,
11:u02:Revised,
16:u07:Revised/July,
13:u08:July/1995,
13:u0A:-/Revised,
11:u11:revised,
11:u01:Revised,
13:u07:July/1995,
16:u0A:Revised/July,
11:u10:revised,
13:u07:_x-1/1994,
12:u08:August/1,
7:u06:995,
12:u07:August/1,
7:u05:995,
9:u09:1/995,
12:u0A:August/1,
7:u14:995,
7:u04:995,
9:u08:1/995,
12:u09:995/_x+1,
7:u13:995,
7:u03:995,
9:u07:1/995,
12:u08:995/_x+1,
7:u12:995,
7:u22:995,
7:u23:995,
7:u33:995,
14:u08:October/23,
14:u07:October/23,
14:u0A:October/23,
10:u08:June/2,
10:u07:June/2,
10:u09:1996/:,
10:u0A:June/2,
10:u08:1996/:,
10:u09::/_x+1,
10:u07:1996/:,
10:u08::/_x+1,
10:u0A:,/1996,
10:u08:May/16,
10:u07:May/16,
10:u0A:May/16,
15:u08:August/1997,
15:u07:August/1997,
15:u08:September/2,
15:u07:September/2,
15:u0A:September/2,
15:u08:August/1993,
15:u07:August/1993,
15:u08:December/15,
15:u07:December/15,
15:u0A:December/15,
18:u08:September/1995,
18:u07:September/1995,
15:u08:August/1996,
15:u07:August/1996,
16:u08:January/1997,
16:u07:January/1997,
11:u04:revised,
13:u08:(/revised,
15:u09:revised/May,
11:u03:revised,
13:u07:(/revised,
15:u08:revised/May,
12:u09:May/1996,
7:u22:rev,
8:u23:revi,
11:u02:revised,
15:u07:revised/May,
12:u08:May/1996,
13:u0A:(/revised,
11:u01:revised,
12:u07:May/1996,
15:u0A:revised/May,
11:u00:revised,
12:u0A:May/1996,
15:u08:December/21,
15:u07:December/21,
15:u0A:December/21,
22:u08:Received/September,
15:u09:September/1,
22:u07:Received/September,
15:u08:September/1,
15:u07:September/1,
22:u0A:Received/September,
15:u0A:September/1,
9:u09:994/;,
9:u08:994/;,
7:u02:994,
9:u07:994/;,
9:u0A:1/994,
7:u11:994,
16:u07:_x-1/Revised,
10:u09:July/1,
10:u08:July/1,
7:u09:1/5,
16:u0A:_x-1/Revised,
10:u07:July/1,
7:u08:1/5,
11:u00:Revised,
7:u07:1/5,
10:u0A:July/1,
7:u0A:1/5,
11:u08:July/22,
11:u07:July/22,
11:u0A:July/22,
14:u08:March/1998,
14:u07:March/1998,
7:u06:999,
14:u09:November/1,
7:u05:999,
14:u08:November/1,
9:u09:1/999,
7:u14:999,
7:u04:999,
14:u07:November/1,
9:u08:1/999,
12:u09:999/_x+1,
7:u13:999,
7:u03:999,
9:u07:1/999,
12:u08:999/_x+1,
14:u0A:November/1,
7:u12:999,
7:u22:999,
7:u23:999,
7:u33:999,
8:u06:1998,
10:u09:-/1998,
10:u08:-/1998,
10:u07:-/1998,
7:u08:2/-,
7:u07:2/-,
7:u0A:2/-,
10:u08:1998/-,
10:u07:1998/-,
8:u09:-/23,
10:u0A:1998/-,
8:u00:1998,
8:u08:-/23,
8:u07:-/23,
12:u08:April/15,
12:u07:April/15,
12:u0A:April/15,
13:u08:January/9,
13:u07:January/9,
13:u0A:January/9,
7:u09:9/8,
7:u08:9/8,
10:u09:8/_x+1,
7:u07:9/8,
10:u08:8/_x+1,
15:u08:February/24,
8:u09:24/,,
15:u07:February/24,
8:u08:24/,,
8:u07:24/,,
15:u0A:February/24,
8:u0A:24/,,
14:u08:February/2,
14:u07:February/2,
14:u0A:February/2,
16:u08:October/1989,
13:u09:1989/_x+1,
16:u07:October/1989,
13:u08:1989/_x+1,
15:u08:August/1995,
15:u07:August/1995,
8:u03:12th,
13:u07:_x-1/12th,
13:u08:12th/July,
13:u09:July/1993,
8:u12:12th,
7:u22:12t,
8:u23:12th,
7:u32:2th,
8:u33:12th,
8:u02:12th,
13:u07:12th/July,
13:u08:July/1993,
13:u0A:_x-1/12th,
8:u11:12th,
8:u01:12th,
13:u07:July/1993,
13:u0A:12th/July,
8:u10:12th,
14:u08:November/,,
14:u07:November/,,
14:u0A:November/,,
10:u08:June/9,
10:u07:June/9,
10:u0A:June/9,
7:u09:9/4,
7:u08:9/4,
7:u07:9/4,
12:u08:March/25,
12:u07:March/25,
12:u0A:March/25,
16:u08:October/1997,
16:u07:October/1997,
14:u08:March/1995,
14:u07:March/1995,
13:u04:corrected,
15:u08:(/corrected,
17:u09:corrected/Dec,
13:u13:corrected,
13:u03:corrected,
15:u07:(/corrected,
17:u08:corrected/Dec,
9:u09:Dec/.,
13:u12:corrected,
7:u22:cor,
8:u23:corr,
8:u33:cted,
13:u02:corrected,
7:u06:and,
17:u07:corrected/Dec,
9:u08:Dec/.,
10:u09:./1995,
15:u0A:(/corrected,
13:u11:corrected,
13:u01:corrected,
7:u05:and,
9:u07:Dec/.,
10:u08:./1995,
12:u09:1995/and,
17:u0A:corrected/Dec,
13:u10:corrected,
7:u14:and,
13:u00:corrected,
7:u04:and,
10:u07:./1995,
12:u08:1995/and,
13:u09:and/March,
9:u0A:Dec/.,
7:u13:and,
7:u03:and,
12:u07:1995/and,
13:u08:and/March,
14:u09:March/1998,
10:u0A:./1995,
7:u12:and,
7:u22:and,
7:u23:and,
6:u31:nd,
7:u32:and,
7:u33:and,
7:u02:and,
13:u07:and/March,
10:u09:1998/),
12:u0A:1995/and,
7:u11:and,
7:u01:and,
10:u08:1998/),
13:u0A:and/March,
7:u10:and,
7:u00:and,
10:u07:1998/),
14:u0A:March/1998,
12:u08:August/5,
12:u07:August/5,
12:u0A:August/5,
12:u08:August/4,
12:u07:August/4,
12:u0A:August/4,
14:u08:October/31,
14:u07:October/31,
14:u0A:October/31,
14:u08:January/19,
14:u07:January/19,
14:u0A:January/19,
14:u08:October/13,
14:u07:October/13,
14:u0A:October/13,
10:u08:May/21,
10:u07:May/21,
10:u0A:May/21,
6:u03:94,
11:u07:_x-1/94,
8:u08:94/-,
6:u12:94,
6:u21:94,
6:u22:94,
6:u23:94,
6:u32:94,
6:u33:94,
6:u02:94,
8:u07:94/-,
11:u0A:_x-1/94,
6:u11:94,
6:u01:94,
8:u09:-/17,
8:u0A:94/-,
6:u10:94,
6:u00:94,
8:u08:-/17,
8:u07:-/17,
8:u0A:-/17,
16:u08:January/1994,
16:u07:January/1994,
13:u08:July/1991,
13:u07:July/1991,
11:u08:July/23,
11:u07:July/23,
11:u0A:July/23,
16:u08:September/18,
16:u07:September/18,
16:u0A:September/18,
14:u08:October/24,
14:u07:October/24,
14:u0A:October/24,
9:u03:@1994,
14:u07:_x-1/@1994,
14:u08:@1994/_x+1,
9:u12:@1994,
5:u20:@,
6:u21:@1,
7:u22:@19,
8:u23:@199,
17:u08:February/1991,
17:u07:February/1991,
7:u06:998,
7:u05:998,
9:u09:1/998,
7:u14:998,
7:u04:998,
9:u08:1/998,
12:u09:998/_x+1,
7:u13:998,
7:u03:998,
9:u07:1/998,
12:u08:998/_x+1,
7:u12:998,
7:u22:998,
7:u23:998,
7:u33:998,
13:u08:August/16,
13:u07:August/16,
13:u0A:August/16,
14:u08:October/12,
14:u07:October/12,
14:u0A:October/12,
6:u04:97,
12:u08:April/97,
11:u09:97/_x+1,
6:u13:97,
6:u03:97,
12:u07:April/97,
11:u08:97/_x+1,
6:u12:97,
6:u21:97,
6:u22:97,
6:u23:97,
6:u32:97,
6:u33:97,
14:u08:April/1997,
14:u07:April/1997,
13:u08:(/Revised,
18:u09:Revised/August,
13:u07:(/Revised,
18:u08:Revised/August,
15:u09:August/1997,
18:u07:Revised/August,
10:u09:1997/),
13:u0A:(/Revised,
10:u08:1997/),
18:u0A:Revised/August,
8:u02:1997,
10:u07:1997/),
15:u0A:August/1997,
8:u11:1997,
10:u08:May/14,
10:u07:May/14,
10:u0A:May/14,
12:u08:March/20,
12:u07:March/20,
10:u09:,/1998,
10:u08:,/1998,
12:u0A:March/20,
10:u07:,/1998,
13:u08:July/1998,
13:u07:July/1998,
6:u06:99,
12:u08:1/August,
12:u09:August/1,
6:u05:99,
12:u07:1/August,
8:u09:1/99,
6:u14:99,
6:u04:99,
8:u08:1/99,
8:u09:99/1,
12:u0A:1/August,
6:u13:99,
6:u03:99,
8:u07:1/99,
8:u08:99/1,
10:u09:1/_x+1,
6:u12:99,
6:u22:99,
6:u23:99,
6:u32:99,
6:u33:99,
6:u02:99,
8:u07:99/1,
10:u08:1/_x+1,
8:u0A:1/99,
6:u11:99,
15:u08:February/21,
15:u07:February/21,
15:u0A:February/21,
14:u08:January/23,
14:u07:January/23,
14:u0A:January/23,
10:u08:July/6,
10:u07:July/6,
10:u0A:July/6,
11:u08:July/15,
11:u07:July/15,
11:u0A:July/15,
8:u05:1988,
10:u09:,/1988,
8:u14:1988,
10:u08:,/1988,
13:u09:1988/_x+1,
10:u07:,/1988,
13:u08:1988/_x+1,
13:u08:June/1993,
13:u07:June/1993,
14:u08:December/1,
7:u06:997,
14:u07:December/1,
7:u05:997,
9:u09:1/997,
14:u0A:December/1,
7:u14:997,
7:u04:997,
9:u08:1/997,
12:u09:997/_x+1,
7:u13:997,
7:u03:997,
9:u07:1/997,
12:u08:997/_x+1,
7:u12:997,
7:u22:997,
7:u23:997,
7:u33:997,
14:u08:October/29,
14:u07:October/29,
14:u0A:October/29,
16:u09:January/1996,
15:u08:December/20,
15:u07:December/20,
15:u0A:December/20,
14:u08:January/24,
14:u07:January/24,
14:u0A:January/24,
13:u08:August/17,
13:u07:August/17,
13:u0A:August/17,
17:u09:December/1992,
17:u08:December/1992,
17:u07:December/1992,
17:u08:December/1996,
17:u07:December/1996,
14:u08:November/3,
14:u07:November/3,
14:u0A:November/3,
16:u08:October/1994,
16:u07:October/1994,
14:u08:February/9,
14:u07:February/9,
14:u0A:February/9,
15:u09:on/February,
15:u08:on/February,
14:u09:February/7,
15:u07:on/February,
14:u08:February/7,
14:u07:February/7,
15:u0A:on/February,
14:u0A:February/7,
8:u03:july,
13:u07:_x-1/july,
10:u08:july/1,
5:u20:j,
6:u21:ju,
7:u22:jul,
8:u23:july,
8:u33:july,
8:u02:july,
10:u07:july/1,
13:u0A:_x-1/july,
8:u01:july,
10:u0A:july/1,
8:u00:july,
11:u03:Juillet,
16:u07:_x-1/Juillet,
16:u08:Juillet/1996,
7:u22:Jui,
8:u23:Juil,
6:u31:et,
7:u32:let,
8:u33:llet,
11:u02:Juillet,
16:u07:Juillet/1996,
16:u0A:_x-1/Juillet,
11:u08:June/24,
11:u07:June/24,
11:u0A:June/24,
10:u08:May/25,
10:u07:May/25,
10:u0A:May/25,
10:u08:May/29,
10:u07:May/29,
10:u0A:May/29,
11:u08:June/21,
11:u07:June/21,
11:u0A:June/21,
11:u08:July/31,
11:u07:July/31,
11:u0A:July/31,
11:u08:June/30,
11:u07:June/30,
11:u0A:June/30,
14:u08:January/25,
14:u07:January/25,
14:u0A:January/25,
14:u08:October/30,
14:u07:October/30,
14:u0A:October/30,
14:u08:January/22,
14:u07:January/22,
14:u0A:January/22,
15:u08:November/29,
15:u07:November/29,
15:u0A:November/29,
15:u08:December/12,
15:u07:December/12,
15:u0A:December/12,
13:u08:July/1996,
13:u07:July/1996,
6:u04:94,
12:u07:_x-1/Nov,
10:u08:Nov/94,
11:u09:94/_x+1,
6:u13:94,
10:u07:Nov/94,
11:u08:94/_x+1,
12:u0A:_x-1/Nov,
7:u08:1/-,
7:u09:-/9,
8:u06:1988,
7:u07:1/-,
7:u08:-/9,
7:u09:9/-,
7:u07:-/9,
7:u08:9/-,
10:u09:-/1988,
7:u0A:1/-,
7:u07:9/-,
10:u08:-/1988,
7:u0A:-/9,
10:u07:-/1988,
7:u0A:9/-,
7:u09:-/4,
8:u06:1981,
7:u08:-/4,
7:u09:4/-,
8:u05:1981,
7:u07:-/4,
10:u09:-/1981,
8:u14:1981,
8:u04:1981,
10:u08:-/1981,
13:u09:1981/_x+1,
7:u0A:-/4,
8:u13:1981,
8:u03:1981,
10:u07:-/1981,
13:u08:1981/_x+1,
8:u12:1981,
8:u23:1981,
6:u31:81,
7:u32:981,
8:u33:1981,
8:u09:12/-,
8:u09:-/03,
8:u06:2012,
8:u08:-/03,
8:u09:03/-,
8:u05:2012,
8:u07:-/03,
8:u08:03/-,
10:u09:-/2012,
8:u14:2012,
8:u04:2012,
8:u07:03/-,
10:u08:-/2012,
13:u09:2012/_x+1,
8:u0A:-/03,
8:u13:2012,
8:u03:2012,
10:u07:-/2012,
13:u08:2012/_x+1,
8:u0A:03/-,
8:u12:2012,
8:u23:2012,
7:u32:012,
8:u33:2012,
13:u07:_x-1/2012,
10:u08:2012/-,
7:u09:-/7,
8:u02:2012,
10:u07:2012/-,
7:u08:-/7,
13:u0A:_x-1/2012,
8:u11:2012,
8:u01:2012,
7:u07:-/7,
10:u0A:2012/-,
8:u10:2012,
8:u00:2012,
11:u09:12/_x+1,
7:u0A:-/7,
11:u08:12/_x+1,
8:u09:-/01,
6:u06:28,
8:u08:-/01,
8:u09:01/-,
13:u0A:_x-1/2010,
8:u07:-/01,
8:u08:01/-,
8:u09:-/28,
8:u07:01/-,
8:u08:-/28,
11:u09:28/_x+1,
8:u0A:-/01,
8:u07:-/28,
11:u08:28/_x+1,
8:u0A:01/-,
7:u09:-/8,
7:u08:-/8,
7:u09:8/-,
7:u07:-/8,
7:u08:8/-,
8:u09:-/22,
7:u07:8/-,
8:u08:-/22,
11:u09:22/_x+1,
7:u0A:-/8,
8:u07:-/22,
11:u08:22/_x+1,
7:u0A:8/-,
7:u03:Bei,
7:u04:der,
13:u05:Redaktion,
15:u06:eingegangen,
12:u07:_x-1/Bei,
11:u08:Bei/der,
17:u09:der/Redaktion,
7:u12:bei,
7:u13:der,
13:u14:redaktion,
5:u20:B,
6:u21:Be,
7:u22:Bei,
7:u23:Bei,
6:u31:ei,
7:u32:Bei,
7:u33:Bei,
7:u02:Bei,
7:u03:der,
13:u04:Redaktion,
15:u05:eingegangen,
6:u06:am,
11:u07:Bei/der,
17:u08:der/Redaktion,
25:u09:Redaktion/eingegangen,
12:u0A:_x-1/Bei,
7:u11:bei,
7:u12:der,
13:u13:redaktion,
15:u14:eingegangen,
7:u22:der,
7:u23:der,
7:u32:der,
7:u33:der,
7:u01:Bei,
7:u02:der,
13:u03:Redaktion,
15:u04:eingegangen,
6:u05:am,
17:u07:der/Redaktion,
25:u08:Redaktion/eingegangen,
18:u09:eingegangen/am,
11:u0A:Bei/der,
7:u10:bei,
7:u11:der,
13:u12:redaktion,
15:u13:eingegangen,
6:u14:am,
7:u22:Red,
8:u23:Reda,
7:u00:Bei,
7:u01:der,
13:u02:Redaktion,
15:u03:eingegangen,
6:u04:am,
25:u07:Redaktion/eingegangen,
18:u08:eingegangen/am,
9:u09:am/14,
17:u0A:der/Redaktion,
7:u10:der,
13:u11:redaktion,
15:u12:eingegangen,
6:u13:am,
6:u21:ei,
7:u22:ein,
8:u23:eing,
6:u31:en,
7:u32:gen,
8:u33:ngen,
7:u00:der,
13:u01:Redaktion,
15:u02:eingegangen,
6:u03:am,
12:u06:Dezember,
18:u07:eingegangen/am,
9:u08:am/14,
8:u09:14/.,
25:u0A:Redaktion/eingegangen,
13:u10:redaktion,
15:u11:eingegangen,
6:u12:am,
6:u21:am,
6:u22:am,
6:u23:am,
6:u31:am,
6:u32:am,
6:u33:am,
13:u00:Redaktion,
15:u01:eingegangen,
6:u02:am,
12:u05:Dezember,
9:u07:am/14,
8:u08:14/.,
14:u09:./Dezember,
18:u0A:eingegangen/am,
15:u10:eingegangen,
6:u11:am,
12:u14:dezember,
15:u00:eingegangen,
6:u01:am,
12:u04:Dezember,
8:u07:14/.,
14:u08:./Dezember,
17:u09:Dezember/2007,
9:u0A:am/14,
6:u10:am,
12:u13:dezember,
6:u00:am,
12:u03:Dezember,
14:u07:./Dezember,
17:u08:Dezember/2007,
8:u0A:14/.,
12:u12:dezember,
7:u22:Dez,
8:u23:Deze,
12:u02:Dezember,
17:u07:Dezember/2007,
14:u0A:./Dezember,
12:u11:dezember,
12:u01:Dezember,
17:u0A:Dezember/2007,
12:u10:dezember,
8:u09:,/12,
8:u08:,/12,
9:u09:12/th,
8:u07:,/12,
9:u08:12/th,
11:u09:th/2011,
9:u07:12/th,
11:u08:th/2011,
8:u0A:,/12,
11:u07:th/2011,
9:u0A:12/th,
9:u09:,/the,
9:u08:,/the,
10:u09:the/28,
8:u06:1999,
9:u07:,/the,
10:u08:the/28,
9:u09:28/th,
10:u07:the/28,
9:u08:28/th,
11:u09:th/1999,
9:u0A:,/the,
9:u07:28/th,
11:u08:th/1999,
10:u0A:the/28,
11:u07:th/1999,
9:u0A:28/th,
14:u09:12/January,
14:u08:12/January,
16:u09:January/2011,
14:u07:12/January,
16:u08:January/2011,
16:u07:January/2011,
14:u0A:12/January,
15:u09:23/November,
15:u08:23/November,
15:u07:23/November,
15:u0A:23/November,
6:u04:in,
11:u05:revised,
8:u06:form,
15:u08:Received/in,
14:u09:in/revised,
6:u13:in,
15:u07:Received/in,
14:u08:in/revised,
16:u09:revised/form,
9:u06:April,
14:u07:in/revised,
16:u08:revised/form,
10:u09:form/5,
15:u0A:Received/in,
16:u07:revised/form,
10:u08:form/5,
11:u09:5/April,
14:u0A:in/revised,
10:u07:form/5,
16:u0A:revised/form,
10:u0A:form/5,
15:u08:Accepted/10,
15:u09:10/December,
15:u07:Accepted/10,
17:u09:December/2010,
17:u08:December/2010,
15:u0A:Accepted/10,
17:u07:December/2010,
15:u09:14/November,
15:u08:14/November,
17:u09:November/2002,
15:u07:14/November,
17:u08:November/2002,
17:u07:November/2002,
15:u0A:14/November,
4=-0x1.12e26e0f11a4bp-5
11=-0x1.12e26e0f11a4bp-5
18=-0x1.12e26e0f11a4bp-5
74=-0x1.12e26e0f11a4bp-5
81=-0x1.12e26e0f11a4bp-5
88=-0x1.12e26e0f11a4bp-5
140=0x1.07d3cd4138a61p-5
142=-0x1.49f0949aa94e9p+0
149=-0x1.04ffd5234cc63p+0
172=-0x1.12e26e0f11a4bp-5
179=-0x1.12e26e0f11a4bp-5
183=0x1.850f69c94df2dp-1
191=0x1.db70823fb8d98p+0
207=-0x1.12e26e0f11a4bp-5
212=0x1.5b0fc4568fce4p+0
217=0x1.947537749c27ap+0
224=0x1.dab0fef085966p+1
225=-0x1.62374cc4be74fp+2
228=0x1.1f1b86d0c6029p+0
230=-0x1.0e5ede8b0fc59p+1
235=-0x1.12e26e0f11a4bp-5
246=0x1.842c66d578305p-2
256=-0x1.12e26e0f11a4bp-5
260=0x1.63668488504dap-2
267=0x1.022e86473f5ep+2
273=0x1.36f8c4c7a36fbp+1
275=-0x1.3c82251337f47p-1
284=-0x1.12e26e0f11a4bp-5
291=-0x1.12e26e0f11a4bp-5
294=0x1.9526c03d3ef91p-2
308=-0x1.e1a3105a6f123p+0
310=0x1.9dd53e667f778p+0
312=-0x1.241a009a0034cp+0
319=-0x1.12e26e0f11a4bp-5
326=-0x1.12e26e0f11a4bp-5
334=-0x1.12fc38543e9afp-2
336=0x1.c028ddc62aa33p-3
338=-0x1.3e700e6da4741p-3
340=0x1.697d4124e49ap-1
342=-0x1.96b742b9f7285p+0
343=-0x1.ae2d9ed871badp+1
344=0x1.140c8324a9034p-5
346=0x1.82a24ce636f8bp-1
347=0x1.27f92fa723481p+2
348=-0x1.4bae40646560fp-1
351=-0x1.3c5877344cdb8p-1
352=0x1.2c9b33932c3a1p+0
355=0x1.ae6bf873e43f5p-1
357=0x1.6a54aa0eeed22p-2
359=-0x1.98bc39ed9274fp+0
360=0x1.0b1a0f09f0166p+1
370=0x1.b61c2a9cd0e4dp+2
371=-0x1.359169b40acdp-2
375=0x1.73843fc3e0995p+2
383=0x1.bf9060c6a51b8p+0
391=0x1.ee600a3f2c051p+1
434=-0x1.63298afc663b3p-3
436=0x1.14ead6506414fp+1
440=0x1.da317d1794dccp-7
505=0x1.da8449cd8503p-1
506=-0x1.766b0f24e247dp+0
538=0x1.11f11a91142b5p-2
592=0x1.9e4cc46cee446p-2
596=0x1.42e88efaa907ep-1
611=-0x1.00200a8469687p-1
612=0x1.2bd5e951b044p+0
613=-0x1.4acf84e467bd9p+1
616=-0x1.9fa571dbcce58p+0
617=0x1.55b09c639bf26p-6
623=0x1.09b90844d597bp-4
624=0x1.f5d18a39fd592p-2
626=-0x1.014f75a4f3dbfp-1
631=0x1.63715e7f8d516p-1
634=0x1.33816b886bbf8p-2
635=-0x1.fc4c0bb8237a4p-2
636=-0x1.c84f6219aa16fp-6
645=-0x1.0ec43d37a9d08p-4
660=-0x1.8cc3c2affabe8p-1
661=-0x1.5374ee4133e5ep+0
662=0x1.514e608c7dfffp-2
663=0x1.f20a0680ec797p-2
674=0x1.a986b613cd87cp-1
675=-0x1.34b3b2cc475ep-2
709=0x1.bb75dfc22b72cp-3
716=0x1.bb75dfc22b72cp-3
779=0x1.bb75dfc22b72cp-3
793=0x1.03d6f1eb97546p+0
814=0x1.c23fdd9655491p-6
849=0x1.bb75dfc22b72cp-3
856=-0x1.3e2dfeaac16b7p-1
857=-0x1.c70781c15e7cap-2
861=-0x1.b5cf9aa9bbf21p-1
868=0x1.89ea7aba22097p-1
869=-0x1.48e30028ee5c6p+1
877=0x1.04eb71e143c01p+2
890=-0x1.ca3b1ca78116bp-3
898=0x1.bb75dfc22b72cp-3
1018=0x1.a1aca75765933p+0
1044=-0x1.6fde94f8482b7p-2
1088=0x1.8a24214bb552ap+0
1109=0x1.9968771ef6a0ep+2
1220=0x1.f5c9225f2205ap+0
1332=0x1.543d7fff6b347p+1
1374=-0x1.4a49aa46eb7b6p-1
1403=0x1.7f399882ee45p-10
1429=-0x1.60579a50da225p-5
1443=-0x1.3cee863d5cd54p-13
1444=0x1.88574eedf23e1p+0
1445=-0x1.cf589dd936553p-4
1446=-0x1.2dd6d16b5a891p-1
1448=0x1.3c3637cb47094p-1
1470=0x1.03971b5e1d5d4p-17
1485=0x1.ffb7553134a0ap-4
1486=0x1.eb468a42364ffp-2
1540=0x1.03971b5e1d5d4p-17
1555=0x1.ffb7553134a0ap-4
1556=0x1.eb468a42364ffp-2
1561=0x1.03971b5e1d5d4p-17
1568=0x1.03971b5e1d5d4p-17
1575=0x1.03971b5e1d5d4p-17
1582=0x1.03971b5e1d5d4p-17
1589=0x1.03971b5e1d5d4p-17
1596=0x1.03971b5e1d5d4p-17
1603=0x1.03971b5e1d5d4p-17
1610=0x1.03971b5e1d5d4p-17
1617=0x1.0d1c9ea0a0978p-2
1624=0x1.45e2be9ebf1a5p-4
1631=0x1.1110ef0c8f1e3p-14
1638=0x1.b0f468484609ep-1
1645=0x1.03971b5e1d5d4p-17
1653=0x1.ffb7553134a0ap-4
1654=0x1.eb468a42364ffp-2
1675=0x1.3e58a86352d24p-1
1688=0x1.8fc8c2c17caadp-1
1689=-0x1.ed2d08ddc5491p-2
1692=0x1.2ebc87a9bc58bp-2
1738=0x1.3e58a86352d24p-1
1751=0x1.8fc8c2c17caadp-1
1752=-0x1.ed2d08ddc5491p-2
1755=0x1.2ebc87a9bc58bp-2
1821=-0x1.520e5507cbca5p-1
1825=0x1.47254a4814f67p+0
1826=0x1.4a13610a36f3fp-1
1829=0x1.3e58a86352d24p-1
1835=0x1.8fc8c2c17caadp-1
1836=-0x1.ed2d08ddc5491p-2
1839=0x1.2ebc87a9bc58bp-2
1862=0x1.2ad3b0bfb4b8ap-4
1918=0x1.2ad3b0bfb4b8ap-4
1932=0x1.2ad3b0bfb4b8ap-4
1939=0x1.2ad3b0bfb4b8ap-4
1946=0x1.2ad3b0bfb4b8ap-4
1953=0x1.2ad3b0bfb4b8ap-4
1960=0x1.2ad3b0bfb4b8ap-4
1967=0x1.2ad3b0bfb4b8ap-4
1974=0x1.2ad3b0bfb4b8ap-4
1981=0x1.2ad3b0bfb4b8ap-4
1988=0x1.2ad3b0bfb4b8ap-4
2003=0x1.be8d8cb5f1f1fp+1
2347=0x1.306c60b81a928p-1
2501=-0x1.9e51b3d3250c4p-6
2559=0x1.bd1b4750123a1p-2
2573=0x1.bd1b4750123a1p-2
3132=0x1.837a29cca8a3fp-4
3160=0x1.837a29cca8a3fp-4
3235=-0x1.92cf220d0ddfcp-2
3284=-0x1.92cf220d0ddfcp-2
3353=-0x1.76abe4d72f204p-6
3357=0x1.7bd08f59b1da6p-2
3416=-0x1.76abe4d72f204p-6
3420=0x1.7bd08f59b1da6p-2
3437=-0x1.76abe4d72f204p-6
3441=0x1.7bd08f59b1da6p-2
3444=-0x1.76abe4d72f204p-6
3448=0x1.7bd08f59b1da6p-2
3451=-0x1.76abe4d72f204p-6
3455=0x1.7bd08f59b1da6p-2
3458=-0x1.76abe4d72f204p-6
3462=0x1.7bd08f59b1da6p-2
